{"hiddenLayer":{"0":{"weights":{"state":{"weather":{"":-1.0492020291030681},"pseudoweather":{},"myside":{"sideeffects":{"spikes":-0.5081851213733725,"stealthrock":0.8440284956330412},"pokemon":{"species":{"Jirachi":-0.6034047554957291,"Gliscor":0.8619754208905055,"Druddigon":0.8734145981264136,"Weavile":0.7008423544707431,"Heracross":0.5834619464745375,"Skarmory":-0.24894790509677375,"Carracosta":0.4326067472661772,"Qwilfish":-0.683996961317697,"Medicham":0.9868894070481007,"Haxorus":0.8168548543312799,"Froslass":-0.34961593159062154,"Cinccino":-0.13500392952858983},"hp":0.6360764159504172,"atk":-0.6459429920740236,"def":-0.5772762171660148,"spa":-0.6660963155499269,"spd":0.590870904139446,"spe":-0.5891535979620596,"status":{"":0.16273493342588602,"tox":-0.19167854025838474,"par":0.10463123231949988,"frz":-0.41062872096786923},"volatiles":{"confusion":-0.5210688792532954,"taunt":0.49528312939844893,"disable":-0.7824284395736472},"types":{"Steel":0.516292891181648,"Psychic":-0.03836134443534065,"Ground":0.8854224625300755,"Flying":-0.329808553142528,"Dragon":0.4121029349127626,"Dark":-0.38408801799287157,"Ice":0.7276734221275526,"Bug":-0.35137830798545544,"Fighting":-0.9124377848198667,"Water":0.38926378730115374,"Rock":-0.9807476062101199,"Poison":0.5561841783329462,"Ghost":0.86715254477877,"Normal":-0.6098059327080474},"ability":{"serenegrace":0.16561950151051455,"poisonheal":0.6860520908605279,"moldbreaker":-0.9796464875689417,"pickpocket":0.7512805466590192,"guts":0.38916779084963016,"sturdy":0.47461842821135747,"intimidate":0.5778903754005298,"purepower":-0.6785806002596577,"cursedbody":-0.08593478610547667,"skilllink":-0.8758164551190482}}},"theirside":{"sideeffects":{"stealthrock":-0.15559750172401088,"spikes":-0.4821185412170375},"pokemon":{"species":{"Carracosta":-0.46220456087678696,"Cinccino":-0.756033187823258,"Medicham":0.8794579894327466,"Froslass":0.6228456259757257,"Haxorus":0.16368240094350536,"Qwilfish":-0.11721871270847808,"Jirachi":0.18889391122056046,"Heracross":-0.41438761969759763,"Druddigon":-0.6618515052739443,"Gliscor":0.7751302139126867,"Skarmory":-0.4334417394625968,"Weavile":-0.6987761059507923},"hp":-0.3597675512290912,"atk":-0.9112009315500789,"def":0.23751941580797287,"spa":0.7366620916376513,"spd":-0.1044837197579283,"spe":0.6992057948294328,"status":{"":0.8587629165113707,"tox":-0.15594062824482474,"par":-0.9278396957566744},"volatiles":{"confusion":0.5483428259699932,"substitute":0.7800269448843875},"types":{"Water":0.006599588140037392,"Rock":0.40593612737012397,"Normal":0.04777484054670081,"Fighting":-0.9277672674623322,"Psychic":-0.1435690922086063,"Ice":-0.18280953943588804,"Ghost":-0.6327656311378754,"Dragon":-0.9753802751881967,"Poison":0.7906152044923791,"Steel":-0.1704550349713808,"Bug":0.2033221831105655,"Ground":-0.3595368029569453,"Flying":-0.1588665373838726,"Dark":0.24728904657116707},"ability":{"":0.4437496263452595,"moldbreaker":0.5252998478074823,"intimidate":0.2863950975501944,"serenegrace":-0.6902374152130315}}}},"action":{"move":{"id":{"toxic":0.053324165519014574,"wish":-0.6729159196590393,"icepunch":0.4231911753108926,"ironhead":0.6887477933328503,"earthquake":0.4613079843012563,"roost":-0.6506662154984775,"knockoff":-0.41509112261847037,"outrage":-0.071174981788057,"firepunch":-0.3412862194282562,"suckerpunch":0.048877910830126936,"swordsdance":-0.01153299890256555,"iciclecrash":-0.3197304626617183,"iceshard":0.4037213391503438,"pinmissile":0.2602448219894513,"substitute":0.8766946467997982,"closecombat":0.8513097913250194,"stealthrock":-0.8085851964071615,"spikes":0.511606117104338,"bravebird":-0.6922093466574093,"stoneedge":-0.871601524131353,"aquajet":-0.7509835836007173,"taunt":0.36096063470410655,"destinybond":0.6672415180663407,"waterfall":0.33623742823200287,"fakeout":-0.6987995720385123,"highjumpkick":-0.08865191642396608,"zenheadbutt":0.6091220566872284,"poisonjab":0.8037092157739009,"icebeam":-0.06466268239941941,"thunderwave":0.5547070899783932,"bulletseed":-0.3822847768141307,"aquatail":-0.6303459296528402,"tailslap":0.5129065927934993,"uturn":-0.03147989691237685},"type":{"Poison":-0.5734274532501169,"Normal":0.5590064776566382,"Ice":-0.8548400899379046,"Steel":0.989801396386151,"Ground":-0.638846018847601,"Flying":-0.42637572502845195,"Dark":0.07301384851070258,"Dragon":-0.9661983710301585,"Fire":0.6960614516045944,"Bug":0.9221885093820896,"Fighting":0.6869647638844856,"Rock":-0.09277280537283433,"Water":-0.8264330156448647,"Ghost":-0.4760281773547228,"Psychic":-0.21521935961995853,"Electric":-0.1826606740830803,"Grass":-0.47517662256239795},"category":{"status":-0.7808176529992501,"physical":-0.33523470741620076,"special":-0.4213503213887595},"damage":-0.6053396442033306,"status":{"tox":0.04579538028475631,"par":-0.2761706304845415},"volatile":{"Substitute":0.17772994048097468,"taunt":-0.9961092828940874,"destinybond":0.00612326549362141},"sideeffect":{"Wish":0.9407344382102392,"stealthrock":0.8227454621249177,"spikes":0.0411459173441064},"fieldeffect":{},"accuracy":0.8183557486706262,"target":{"normal":-0.7811376479569583,"self":0.2973448133462323,"allAdjacent":0.592853038168233,"randomNormal":-0.4464385083330498,"foeSide":0.4049446631051429,"any":0.202238012477445}},"switch":{"species":{"Weavile":-0.013866691395691163,"Heracross":0.7372752435423333,"Skarmory":-0.10018996833961236,"Gliscor":-0.3760381899015583,"Druddigon":0.9315782053763922,"Jirachi":-0.9378050525812345,"Qwilfish":-0.5557092825332526,"Cinccino":0.12830945822237882,"Haxorus":0.8371702689997611,"Medicham":0.4932005577079446,"Froslass":0.5159504249716171,"Carracosta":0.6404931705938354},"hp":0.6638103362610465,"atk":0.4128349558473615,"def":-0.1758027952395732,"spa":-0.9814702027334582,"spd":0.7494818002188381,"spe":0.11543457947741312,"status":{"tox":-0.5847748065980937,"par":-0.6168060910237831},"types":{"Dark":0.6111247094546219,"Ice":0.2865661811319987,"Bug":-0.5094535270085774,"Fighting":-0.6686206642027095,"Steel":-0.3162460790657273,"Flying":0.6778903252902265,"Ground":0.8974154314906438,"Dragon":0.2023204384415322,"Psychic":-0.6488382093914562,"Water":0.7219448521223081,"Poison":-0.47182377862297153,"Normal":-0.6061265893403315,"Ghost":-0.16922439778686682,"Rock":-0.06943977450250786},"ability":{"pickpocket":0.6519856306149876,"guts":0.326815068347023,"sturdy":0.7995135221132187,"poisonheal":-0.1801537254888998,"moldbreaker":-0.9029936425023745,"serenegrace":0.3866247110630727,"intimidate":-0.8725486658973254,"skilllink":0.8442479159296624,"purepower":0.3998573889193784,"cursedbody":-0.5253225134356976},"item":{"lifeorb":-0.5750439703344116,"heracronite":0.5045099919079887,"leftovers":0.37820771829208555,"toxicorb":-0.5873827861017825,"airballoon":-0.5899650506019463,"":-0.8300742174218786,"blacksludge":0.4175038246222953,"choiceband":-0.5302482016731821,"lumberry":-0.3942230609352029,"medichamite":-0.6761665548962439},"moves":{"knockoff":0.08504460066713546,"swordsdance":-0.9942729068989071,"iciclecrash":0.48618069544853737,"iceshard":0.24731088932003634,"pinmissile":-0.055299614695675015,"substitute":0.7082857881218381,"closecombat":0.4149231797391253,"roost":-0.5288203423533696,"stealthrock":-0.9996845869364458,"spikes":-0.7136631846278498,"bravebird":0.558784456689926,"earthquake":0.3357626766490994,"toxic":-0.8671596469453106,"outrage":-0.5423729620832175,"firepunch":0.9728020335055038,"suckerpunch":-0.1007785641304211,"wish":-0.5879059506257751,"icepunch":-0.8684084165410093,"ironhead":0.718695160246217,"taunt":-0.9343806565292399,"destinybond":-0.014659366867233459,"waterfall":0.43830674957689997,"bulletseed":0.2298324223710585,"aquatail":0.28186121332008074,"tailslap":0.4395353571757651,"uturn":-0.8644754001092149,"poisonjab":0.7137607024560961,"fakeout":-0.2233133164393446,"highjumpkick":0.7387267629680596,"zenheadbutt":0.19389222077755264,"icebeam":0.8601513816475053,"thunderwave":0.7099334834079016,"stoneedge":0.5199948140018283,"aquajet":-0.6250873658557564}}}},"bias":-0.06802453677203132},"1":{"weights":{"state":{"weather":{"":-0.8650643227218009},"pseudoweather":{},"myside":{"sideeffects":{"spikes":0.1926182104987527,"stealthrock":0.8441771733728941},"pokemon":{"species":{"Jirachi":-0.751863143668057,"Gliscor":0.3613404371216836,"Druddigon":-0.39574260879736733,"Weavile":-0.9490930797214802,"Heracross":-0.37515162963228355,"Skarmory":-0.9716396095898105,"Carracosta":0.07619163995812782,"Qwilfish":0.026098210067605265,"Medicham":0.19026484723278658,"Haxorus":-0.2831264691463702,"Froslass":-0.3286768680842229,"Cinccino":-0.930053304002878},"hp":0.17371246779531416,"atk":0.5049414633170013,"def":-0.7960873432891522,"spa":0.701779579942327,"spd":-0.40998903040648454,"spe":-0.6270503953399978,"status":{"":-0.2800612211140187,"tox":0.1423884828252868,"par":-0.1229590059674789,"frz":0.1629626872436127},"volatiles":{"confusion":-0.2294301326427652,"taunt":0.35113251770180914,"disable":-0.6645263117075908},"types":{"Steel":0.720587412187681,"Psychic":0.5324005773206839,"Ground":-0.687360813795342,"Flying":0.425686538879095,"Dragon":-0.23160897138675207,"Dark":-0.8634552867970641,"Ice":0.879668728183521,"Bug":0.6354261556962556,"Fighting":0.5788412771339421,"Water":-0.1750041863836713,"Rock":-0.26546411343277887,"Poison":0.1362409431890752,"Ghost":-0.24140210280921526,"Normal":0.39175266926255276},"ability":{"serenegrace":0.11604191353006069,"poisonheal":-0.05403888093097848,"moldbreaker":-0.21749759152192827,"pickpocket":-0.21079931662132906,"guts":-0.8221705155697002,"sturdy":0.2946899747510332,"intimidate":0.1759036652026258,"purepower":0.0775583078136326,"cursedbody":-0.8428883610265565,"skilllink":0.7368153086036724}}},"theirside":{"sideeffects":{"stealthrock":0.8361406410079728,"spikes":0.8342036411571059},"pokemon":{"species":{"Carracosta":-0.8710993544199991,"Cinccino":-0.5243472940283376,"Medicham":-0.3009761156335926,"Froslass":0.042880235046004966,"Haxorus":-0.19766667525853857,"Qwilfish":0.7585926767343387,"Jirachi":0.4553336760745064,"Heracross":0.49021989805425525,"Druddigon":0.05297641884356321,"Gliscor":-0.617938563078058,"Skarmory":0.6874929774151306,"Weavile":-0.4139795402514676},"hp":0.2820427600828437,"atk":0.887211711303185,"def":0.36200350335679665,"spa":0.10308804795843327,"spd":0.31008348534752905,"spe":0.4981460439059078,"status":{"":-0.6990048526732081,"tox":0.26085999304805063,"par":0.12131000739606607},"volatiles":{"confusion":0.5752624870461074,"substitute":-0.4800602907045999},"types":{"Water":0.004173321524332509,"Rock":-0.33215531019356737,"Normal":0.10365441638499653,"Fighting":0.15428062019691627,"Psychic":-0.7333009996406128,"Ice":-0.8921865334886843,"Ghost":-0.7257284625959249,"Dragon":-0.2763426031871058,"Poison":0.4970050246726943,"Steel":-0.8617618528088369,"Bug":-0.5729825477901075,"Ground":0.7367129006432173,"Flying":-0.620094082979164,"Dark":0.4849812019184439},"ability":{"":0.45754627991316477,"moldbreaker":-0.9696321842128907,"intimidate":0.9188211795298422,"serenegrace":-0.6996671071410645}}}},"action":{"move":{"id":{"toxic":-0.9154024967797306,"wish":0.6434481432897972,"icepunch":0.028834984465183445,"ironhead":-0.44849136450085236,"earthquake":-0.6948030431253692,"roost":0.18293263065334608,"knockoff":0.7086581212447056,"outrage":-0.7250761276401825,"firepunch":-0.4769414039790969,"suckerpunch":0.018733235295054218,"swordsdance":-0.8688101745176927,"iciclecrash":-0.9773863434303812,"iceshard":0.19137017980007842,"pinmissile":-0.9433221423365445,"substitute":0.4731592710065935,"closecombat":-0.05879440841120376,"stealthrock":-0.9742422713008714,"spikes":-0.4835545569776139,"bravebird":0.8410210165961705,"stoneedge":0.20248827963298363,"aquajet":-0.6737980727374029,"taunt":-0.9493547841195311,"destinybond":-0.8402020531885794,"waterfall":-0.14683348823192732,"fakeout":0.8511278550668697,"highjumpkick":-0.5684938419923222,"zenheadbutt":0.6340152504177818,"poisonjab":0.9626983039712885,"icebeam":0.36691879963420604,"thunderwave":0.11785498022698793,"bulletseed":0.4872756429466682,"aquatail":-0.9611837829821774,"tailslap":-0.7356887642525796,"uturn":0.9044277711431747},"type":{"Poison":-0.5450846060205412,"Normal":0.428948076349266,"Ice":0.9433367765817547,"Steel":0.02489023921798106,"Ground":-0.31752006461179255,"Flying":0.7829753464649063,"Dark":0.23150120260407325,"Dragon":-0.21797964101894593,"Fire":0.6361790729615229,"Bug":-0.21022019950391346,"Fighting":0.9344700746467232,"Rock":0.2560442973579318,"Water":-0.6960291621392365,"Ghost":0.9207299878474497,"Psychic":-0.1350286129695779,"Electric":-0.4720614208505882,"Grass":-0.6841852742926258},"category":{"status":-0.9816313327560264,"physical":0.7637825972271319,"special":-0.45882521288037914},"damage":0.3990672649726313,"status":{"tox":-0.05900349379472687,"par":0.869426481182674},"volatile":{"Substitute":-0.14469547503176372,"taunt":0.8015148286537128,"destinybond":-0.06779541105572573},"sideeffect":{"Wish":0.1141115238946564,"stealthrock":-0.7009755214810878,"spikes":0.542542139894479},"fieldeffect":{},"accuracy":-0.4857101622600147,"target":{"normal":-0.13415185858421907,"self":-0.6937182837129826,"allAdjacent":0.3851124881546154,"randomNormal":-0.4545785276661956,"foeSide":-0.7801987181421615,"any":-0.7500766419745377}},"switch":{"species":{"Weavile":-0.0958234082620378,"Heracross":0.9963055597953918,"Skarmory":-0.4895037124356434,"Gliscor":0.48498247081062834,"Druddigon":-0.010326194036753411,"Jirachi":-0.3397110853523264,"Qwilfish":-0.7721765249590038,"Cinccino":-0.6115070076710533,"Haxorus":0.8807909984979654,"Medicham":0.08396245880400599,"Froslass":-0.30693057790303024,"Carracosta":0.11061426498293699},"hp":-0.6273848854327223,"atk":-0.7220376601347268,"def":-0.8187286460091157,"spa":-0.16094907141561096,"spd":0.09967722595997117,"spe":0.3379041554019353,"status":{"tox":0.5556484222653489,"par":0.271023904891194},"types":{"Dark":0.8879821876902145,"Ice":-0.12287041695130804,"Bug":-0.03985397617078501,"Fighting":-0.3680261596859449,"Steel":0.9607819315780781,"Flying":0.3913212424054225,"Ground":-0.9265121394722161,"Dragon":0.08432819621356376,"Psychic":0.6964639242642785,"Water":0.03383245401597541,"Poison":0.23386674327964085,"Normal":-0.6739069418050901,"Ghost":0.25800112425292543,"Rock":-0.7784358942529831},"ability":{"pickpocket":0.42669944799611714,"guts":0.7854850160448819,"sturdy":0.9091490787765194,"poisonheal":-0.11789682183667244,"moldbreaker":-0.29531832245434275,"serenegrace":-0.5016315496610249,"intimidate":-0.5674628933100423,"skilllink":-0.31986421636643503,"purepower":-0.29418071327863693,"cursedbody":0.6067286626537629},"item":{"lifeorb":0.3727449836053659,"heracronite":0.28234957098786273,"leftovers":-0.5181558339364907,"toxicorb":0.14477084980237814,"airballoon":0.4358388653587523,"":0.7433001973021182,"blacksludge":-0.6413115069239703,"choiceband":0.1032032386922993,"lumberry":0.7041590738708798,"medichamite":-0.9004704431824382},"moves":{"knockoff":-0.49666776396240225,"swordsdance":0.9652307647905745,"iciclecrash":0.49077151728184754,"iceshard":0.5815975506135684,"pinmissile":-0.3661006788528618,"substitute":-0.6216236339829821,"closecombat":-0.7354113477567772,"roost":-1.0000108427534897,"stealthrock":-0.10048585090657973,"spikes":0.3273000387697942,"bravebird":-0.7562072297477824,"earthquake":-0.7526320500168148,"toxic":-0.7150888409850901,"outrage":-0.7498134801307047,"firepunch":-0.5459012844954222,"suckerpunch":0.5460268117377359,"wish":0.33061250087533045,"icepunch":0.16173383208435377,"ironhead":0.06811585594279057,"taunt":-0.11548006494943897,"destinybond":-0.616483199393826,"waterfall":-0.44631257594200724,"bulletseed":-0.5030375839266356,"aquatail":0.13057065811912894,"tailslap":-0.5644716006973148,"uturn":-0.3776336977974274,"poisonjab":0.0679470840974785,"fakeout":-0.37497487624479,"highjumpkick":0.9465405075233306,"zenheadbutt":0.9855477068827527,"icebeam":-0.9280651106685256,"thunderwave":-0.31347682818008415,"stoneedge":-0.823183020942943,"aquajet":-0.8286472379591684}}}},"bias":-0.06802453677203132},"2":{"weights":{"state":{"weather":{"":-1.0427139535405956},"pseudoweather":{},"myside":{"sideeffects":{"spikes":0.4139578403169075,"stealthrock":0.4212244761053737},"pokemon":{"species":{"Jirachi":-0.9100188724792642,"Gliscor":-0.7141575320129869,"Druddigon":-0.619381304751538,"Weavile":-0.8345430617421431,"Heracross":-0.05966157457752498,"Skarmory":0.7891263157927748,"Carracosta":-0.27475854761566243,"Qwilfish":0.35641845127108596,"Medicham":0.6785086246399854,"Haxorus":-0.6620492567196756,"Froslass":0.6796286723066243,"Cinccino":-0.3223536702494441},"hp":-0.8134941033344855,"atk":-0.09264573197934012,"def":-0.424633831729353,"spa":-0.6249646613219542,"spd":0.5770976688445197,"spe":0.021496134621595813,"status":{"":0.30347792474744556,"tox":0.03446324938747124,"par":0.46305297461063544,"frz":-0.8047389692317529},"volatiles":{"confusion":0.6489899031170852,"taunt":-0.2816468664880008,"disable":-0.11062159737651855},"types":{"Steel":0.23353952529174268,"Psychic":-0.0056919298569518585,"Ground":-0.45708461724357263,"Flying":-0.4632875505866715,"Dragon":0.102792336498588,"Dark":0.9274086168404362,"Ice":0.24769697931077667,"Bug":-0.7245669423546263,"Fighting":-0.6417599838137479,"Water":0.24836639607414077,"Rock":-0.2643314787972142,"Poison":0.8529534911614904,"Ghost":-0.4742472817252956,"Normal":0.9400684665463048},"ability":{"serenegrace":-0.32855099451140674,"poisonheal":-0.9673031347951089,"moldbreaker":-0.3296447831720296,"pickpocket":-0.4834840914189937,"guts":-0.7390835438494269,"sturdy":-0.5320297020009834,"intimidate":-0.6377833040603629,"purepower":0.13715461481238167,"cursedbody":0.7565311409056559,"skilllink":0.030421946575595257}}},"theirside":{"sideeffects":{"stealthrock":0.09797037202387016,"spikes":0.7309857439560419},"pokemon":{"species":{"Carracosta":-0.06623594021638578,"Cinccino":0.2687474479931603,"Medicham":0.4601045274789979,"Froslass":0.9772350217974978,"Haxorus":0.6438357454264814,"Qwilfish":-0.061969953870324744,"Jirachi":0.9428665452058593,"Heracross":-0.3626734888589661,"Druddigon":0.8605896796962883,"Gliscor":-0.029673088711192553,"Skarmory":0.35806383186920143,"Weavile":0.02188200483944176},"hp":-0.8299891673556498,"atk":0.49646817511102603,"def":-0.6553955671750572,"spa":-0.7155864151837331,"spd":-0.5303712014150795,"spe":0.10014009747437651,"status":{"":-0.2422239751634059,"tox":0.5425654250298476,"par":-0.19538794688894004},"volatiles":{"confusion":0.027993118853995944,"substitute":0.7176545866950605},"types":{"Water":0.06172366045246428,"Rock":-0.4896355182388369,"Normal":-0.43491168651331635,"Fighting":0.023898910373145118,"Psychic":-0.6653279330019637,"Ice":0.609582471760193,"Ghost":0.8067519086388265,"Dragon":-0.457907319281044,"Poison":0.2875195038555672,"Steel":-0.6722705326152631,"Bug":-0.008820602106092479,"Ground":0.00467447169765602,"Flying":-0.46880408910588106,"Dark":-0.8558651584926188},"ability":{"":0.5914097763464284,"moldbreaker":-0.4075406350046863,"intimidate":0.8929756159453446,"serenegrace":-0.5511922482097826}}}},"action":{"move":{"id":{"toxic":-0.2679342984974518,"wish":-0.8201195018934206,"icepunch":-0.12042715362053964,"ironhead":0.2960030037993926,"earthquake":-0.2411568590299494,"roost":-0.4522626933617948,"knockoff":0.3258404908857244,"outrage":-0.5913280752816061,"firepunch":-0.6705571060655573,"suckerpunch":-0.2617109715056922,"swordsdance":0.3685566584413852,"iciclecrash":-0.7162387458891467,"iceshard":0.412032892204655,"pinmissile":-0.2532449844520106,"substitute":0.9703955194026723,"closecombat":0.8614229062944427,"stealthrock":0.23954622300876943,"spikes":0.08014311799527292,"bravebird":-0.012525373479969086,"stoneedge":-0.6010947838797639,"aquajet":0.2952055143891319,"taunt":0.3745473654246698,"destinybond":-0.996585967180831,"waterfall":0.34840940605571236,"fakeout":-0.6501977317571241,"highjumpkick":-0.46009114218874414,"zenheadbutt":0.3010229932055215,"poisonjab":-0.36432709148945425,"icebeam":0.8052155430878805,"thunderwave":0.3493285153374339,"bulletseed":-0.4106314162393941,"aquatail":0.0020957738476132803,"tailslap":-0.22507285956621192,"uturn":0.7608269839434776},"type":{"Poison":0.1387909831521674,"Normal":0.2692481877327143,"Ice":0.5461015972263924,"Steel":-0.7724237359260604,"Ground":0.9903740300763973,"Flying":0.05851416996349611,"Dark":0.4134527372453132,"Dragon":0.5223607022797583,"Fire":0.020564720611436993,"Bug":-0.8845801517778704,"Fighting":0.9959485731148607,"Rock":0.8853399173138491,"Water":-0.033486376616862046,"Ghost":0.3882221819865035,"Psychic":0.9958224652836587,"Electric":-0.5710550605103086,"Grass":0.7087005836208542},"category":{"status":-0.8253959798999619,"physical":0.013779296549137466,"special":0.5876272348007969},"damage":-0.22962339056336198,"status":{"tox":-0.6915623911029841,"par":-0.7824765353139878},"volatile":{"Substitute":0.8614069546492962,"taunt":-0.8316743992940037,"destinybond":0.1729755116061229},"sideeffect":{"Wish":0.8315105156877034,"stealthrock":0.9991537872794272,"spikes":-0.7259971986767415},"fieldeffect":{},"accuracy":0.4777861524744177,"target":{"normal":0.9397945581215674,"self":0.468149547630495,"allAdjacent":0.133915956791158,"randomNormal":0.8257992294570902,"foeSide":-0.7107210999399001,"any":-0.45321429796807583}},"switch":{"species":{"Weavile":0.011528834978359463,"Heracross":-0.5891053050356536,"Skarmory":-0.29332676885016173,"Gliscor":-0.537170729624357,"Druddigon":-0.48332462367962936,"Jirachi":-0.8450553693217144,"Qwilfish":-0.9512920453107165,"Cinccino":-0.07107533386303733,"Haxorus":0.4369737835016254,"Medicham":-0.14895758808794923,"Froslass":0.061156565745657865,"Carracosta":-0.12466244988548685},"hp":-1.0022213911800795,"atk":-0.8908382447258144,"def":0.606171916169381,"spa":0.8449028139079849,"spd":-0.5373823825279143,"spe":0.3450206084841967,"status":{"tox":-0.9703979124436769,"par":-0.22086290509817452},"types":{"Dark":-0.47444086549206965,"Ice":-0.9030107242306928,"Bug":0.6869430186626393,"Fighting":-0.871170421766057,"Steel":-0.22732182778322363,"Flying":-0.9948844184898394,"Ground":-0.3254018788804935,"Dragon":-0.5721577507415129,"Psychic":0.4893459468273731,"Water":-0.09152204644380373,"Poison":-0.8030359032475576,"Normal":-0.9383820316320849,"Ghost":0.316494607315172,"Rock":0.0937672078572241},"ability":{"pickpocket":0.03526691798897055,"guts":0.18097726096402544,"sturdy":0.08354701108553193,"poisonheal":0.2030419827852264,"moldbreaker":0.3680804608524899,"serenegrace":-0.48700299020123605,"intimidate":-0.6127468446660629,"skilllink":-0.2390360403079913,"purepower":-0.9542299275688935,"cursedbody":0.09266717572635841},"item":{"lifeorb":0.14369812376708901,"heracronite":-0.6110869796073315,"leftovers":0.7942227392877177,"toxicorb":0.6342015232980215,"airballoon":-0.4167091370777965,"":0.256063208063387,"blacksludge":0.620707703812367,"choiceband":0.2024724762052642,"lumberry":-0.13674491540679368,"medichamite":-0.05252214810052891},"moves":{"knockoff":-0.41355993862947443,"swordsdance":0.29923220066116574,"iciclecrash":-0.2866802370035427,"iceshard":0.16429467503771847,"pinmissile":0.39538266604803063,"substitute":0.45691675593354075,"closecombat":0.05866682742784235,"roost":-0.35823027365849786,"stealthrock":0.40389817157914637,"spikes":0.755078194933466,"bravebird":0.2900093872063656,"earthquake":-0.9501523146529801,"toxic":-0.5317470104965859,"outrage":-0.8969549803612865,"firepunch":-0.9273175914964878,"suckerpunch":0.9552115868650913,"wish":0.47076312308765367,"icepunch":0.859330061006212,"ironhead":-0.2419541023499372,"taunt":-0.812980043383301,"destinybond":0.6359292344205878,"waterfall":-0.032056397128497505,"bulletseed":-0.752541667517468,"aquatail":0.3901163056575395,"tailslap":0.2553269877160699,"uturn":0.5491862547412526,"poisonjab":0.4583091373278054,"fakeout":0.7972947844268279,"highjumpkick":-0.5908754365111757,"zenheadbutt":0.44372461234388183,"icebeam":-0.3892224817070211,"thunderwave":-0.6990025993683502,"stoneedge":0.6387607344047553,"aquajet":-0.35322369600376063}}}},"bias":-0.06802453677203132},"3":{"weights":{"state":{"weather":{"":0.4083313769462824},"pseudoweather":{},"myside":{"sideeffects":{"spikes":0.24337833528467417,"stealthrock":-0.07773803820725968},"pokemon":{"species":{"Jirachi":-0.62628933794929,"Gliscor":-0.6512796837212724,"Druddigon":-0.44281418712521414,"Weavile":0.6176610951026177,"Heracross":0.7264829253744168,"Skarmory":-0.8803259869456632,"Carracosta":0.3893250383676028,"Qwilfish":-0.5843710997600704,"Medicham":-0.294691943788564,"Haxorus":-0.5374198410008064,"Froslass":0.6603205433176362,"Cinccino":0.1819116619452306},"hp":-0.36130041708069605,"atk":0.9387239698982222,"def":-0.0450330669832234,"spa":-0.5426922613364333,"spd":-0.7739165772357104,"spe":0.4360547481626578,"status":{"":0.39860606092551915,"tox":0.18081269591056867,"par":0.15365559656827432,"frz":0.7909959426014576},"volatiles":{"confusion":-0.16860549320616178,"taunt":-0.6880067120086193,"disable":0.024509144680624484},"types":{"Steel":-0.24416833906163787,"Psychic":-0.7133307023468454,"Ground":-0.21229711231838463,"Flying":-0.26552998399801486,"Dragon":0.2717261946590973,"Dark":-0.3858871833608048,"Ice":-0.4280231140104431,"Bug":-0.8264917675435123,"Fighting":-0.2059584282497392,"Water":-0.088092962426933,"Rock":0.22437322263838258,"Poison":0.33418737216192973,"Ghost":-0.7890193275047142,"Normal":-0.3684615323922121},"ability":{"serenegrace":0.013160799518859758,"poisonheal":0.5693055991647864,"moldbreaker":-0.3523136341598786,"pickpocket":0.2021569531832899,"guts":-0.5252155353088434,"sturdy":-0.4387940767158236,"intimidate":0.013466612146484813,"purepower":0.9311235974598335,"cursedbody":0.754239242775463,"skilllink":0.15448129686008152}}},"theirside":{"sideeffects":{"stealthrock":-0.007528851127709749,"spikes":-0.02627536580888748},"pokemon":{"species":{"Carracosta":-0.16689619827842597,"Cinccino":0.4003806658709591,"Medicham":0.3738719786623521,"Froslass":-0.5945727649409697,"Haxorus":-0.7545658832856896,"Qwilfish":-0.2789208080259335,"Jirachi":0.3231147816049143,"Heracross":-0.008831404096734441,"Druddigon":0.6256652868822533,"Gliscor":-0.4403227704165405,"Skarmory":0.8719150620169229,"Weavile":-0.34970697365428255},"hp":-0.22316274388782031,"atk":0.874123625793505,"def":0.23713426287285,"spa":-0.8243409597352275,"spd":-0.9730721120939468,"spe":0.07445819235346267,"status":{"":-0.6425899325704215,"tox":-0.07323462381123255,"par":0.734112985960323},"volatiles":{"confusion":0.2611182081751076,"substitute":0.11251480655237467},"types":{"Water":0.7423803809533805,"Rock":0.6858386386670788,"Normal":-0.49605731482784765,"Fighting":0.5152813422516157,"Psychic":-0.42742544094237317,"Ice":0.6748589870638508,"Ghost":0.5942025601795272,"Dragon":-0.7202227634691291,"Poison":-0.8907507030100048,"Steel":-0.16956783000678963,"Bug":0.5197244462018339,"Ground":-0.7792099624191778,"Flying":-0.6690786475248377,"Dark":0.6876368343066929},"ability":{"":0.3001665972608669,"moldbreaker":0.510683613509434,"intimidate":0.8031441486994162,"serenegrace":-0.7991383431437382}}}},"action":{"move":{"id":{"toxic":0.2057940771701873,"wish":0.6244237514959812,"icepunch":0.44412837941766053,"ironhead":-0.6131323056743474,"earthquake":-0.2642313609239556,"roost":0.17508308212813972,"knockoff":-0.8110003590194594,"outrage":0.6053269185230312,"firepunch":-0.6458530182925801,"suckerpunch":0.9249060490518102,"swordsdance":0.9864087491138441,"iciclecrash":0.2980212653351429,"iceshard":0.2950619711855844,"pinmissile":-0.650590618412799,"substitute":0.7421631649224163,"closecombat":-0.1265514779271939,"stealthrock":-0.21745054852449114,"spikes":-0.5615999545585766,"bravebird":0.1017861621615037,"stoneedge":-0.3270026980740547,"aquajet":0.7778789800806365,"taunt":-0.7800875541800001,"destinybond":0.7081628211196414,"waterfall":-0.8519373418724365,"fakeout":-0.7595795983037155,"highjumpkick":0.9682906701263478,"zenheadbutt":-0.43620894887143713,"poisonjab":0.8214530376802148,"icebeam":0.6431541888795067,"thunderwave":0.9913039566125899,"bulletseed":0.805793071034719,"aquatail":0.9936200405184907,"tailslap":-0.9608185335339474,"uturn":0.19217052693933123},"type":{"Poison":0.02447553494391874,"Normal":-0.378879354683484,"Ice":0.8275369900888031,"Steel":0.5107025695659337,"Ground":0.6264163071626462,"Flying":0.028993787602789686,"Dark":0.25378030649834393,"Dragon":-0.10330104760044398,"Fire":-0.33008993469604686,"Bug":-0.14476883683738162,"Fighting":0.8417404707432796,"Rock":0.995245022964853,"Water":0.5662321726329109,"Ghost":-0.43676137547163574,"Psychic":-0.5676016978853111,"Electric":0.16802985420199068,"Grass":0.18419886144418343},"category":{"status":0.07850345514308602,"physical":-0.7618120027116364,"special":0.42807551061279714},"damage":0.7093053937988002,"status":{"tox":-0.8287502666543248,"par":0.006496167156951671},"volatile":{"Substitute":-0.6801865600043904,"taunt":-0.6583938455315526,"destinybond":-0.14367723205911487},"sideeffect":{"Wish":0.6301263126200305,"stealthrock":-0.11551518513718859,"spikes":-0.15094332902145682},"fieldeffect":{},"accuracy":-0.9486045015657637,"target":{"normal":-0.1915224937485244,"self":-0.5262271505827735,"allAdjacent":-0.9299898194934338,"randomNormal":0.5094703484649585,"foeSide":-0.7234889501136881,"any":-0.14674878118150425}},"switch":{"species":{"Weavile":-0.332807292975423,"Heracross":-0.8804351639509447,"Skarmory":0.10626406592469628,"Gliscor":0.27635427205040936,"Druddigon":-0.25153792491923316,"Jirachi":0.52552114537073,"Qwilfish":0.5867740787555817,"Cinccino":0.907485975202558,"Haxorus":-0.2089648674196796,"Medicham":-0.9267045149165956,"Froslass":-0.04390513105710969,"Carracosta":0.6340190817788064},"hp":0.4812853631534943,"atk":-0.9155101567738849,"def":0.5482343629583935,"spa":-0.8505073736724013,"spd":-0.8117053354118733,"spe":0.7313552635085869,"status":{"tox":-0.49376927504852136,"par":-0.9555216340772352},"types":{"Dark":-0.31367006389330465,"Ice":0.4736938940866614,"Bug":-0.7009921978726794,"Fighting":-0.3792225800366231,"Steel":-0.7500846896077906,"Flying":0.3961834731912513,"Ground":0.7617256125675104,"Dragon":0.1910495584024931,"Psychic":0.8472040828162077,"Water":0.6701290616567693,"Poison":0.4276919143239408,"Normal":0.880100268251128,"Ghost":-0.5940274940470966,"Rock":-0.8871989171870686},"ability":{"pickpocket":0.5563284138205935,"guts":-0.20849627035458562,"sturdy":-0.433558729021799,"poisonheal":0.5118202765120713,"moldbreaker":-0.6931815923540011,"serenegrace":-0.270867277207679,"intimidate":-0.5574075369958753,"skilllink":-0.12086253270184077,"purepower":0.16095394742386304,"cursedbody":-0.028791240938673468},"item":{"lifeorb":-0.8546736779489837,"heracronite":-0.018824711839074748,"leftovers":0.2410559408418691,"toxicorb":-0.415165666063586,"airballoon":0.497680413942825,"":-0.9863634059360816,"blacksludge":-0.3442280758706504,"choiceband":0.5361827835917733,"lumberry":-0.3881731963954831,"medichamite":0.961679318434058},"moves":{"knockoff":-0.26890314919387986,"swordsdance":0.36374125321939965,"iciclecrash":-0.5399376983150259,"iceshard":0.5392754636159949,"pinmissile":0.18503273193436387,"substitute":-0.8026833470730317,"closecombat":-0.2119369716659496,"roost":0.25345682774982686,"stealthrock":0.1292106864589005,"spikes":0.6251464191088125,"bravebird":0.7977043015649934,"earthquake":0.7920279515244469,"toxic":0.15309483003719931,"outrage":-0.847640957157593,"firepunch":0.6134349394993172,"suckerpunch":0.8705301366153425,"wish":-0.9640965773214685,"icepunch":0.6385859124766888,"ironhead":-0.7468359273001544,"taunt":-0.15819422802145233,"destinybond":0.09885608541603341,"waterfall":-0.7403011345897768,"bulletseed":0.46716772318219923,"aquatail":-0.09408740367766077,"tailslap":-0.6753736049740137,"uturn":0.5658920199102625,"poisonjab":-0.8510178076519881,"fakeout":0.7720810206481308,"highjumpkick":-0.648970553654062,"zenheadbutt":-0.03410561523852795,"icebeam":0.8207848934812674,"thunderwave":0.24496750958087699,"stoneedge":-0.11376806577034985,"aquajet":0.3562853442569219}}}},"bias":-0.06802453677203132},"4":{"weights":{"state":{"weather":{"":-1.060610106738432},"pseudoweather":{},"myside":{"sideeffects":{"spikes":-0.3376912101837992,"stealthrock":-0.6636670165279156},"pokemon":{"species":{"Jirachi":0.11032359403094696,"Gliscor":0.44966365780929884,"Druddigon":-0.8395723166561848,"Weavile":-0.41476177365900674,"Heracross":-0.4079465585698753,"Skarmory":0.7866946139965403,"Carracosta":0.2613758883195718,"Qwilfish":0.21328557619196875,"Medicham":0.2993697741482215,"Haxorus":-0.6421281705276767,"Froslass":-0.9944396072002912,"Cinccino":0.3145721552711644},"hp":-0.46449497860943356,"atk":-0.09596132933508517,"def":0.9489147224281149,"spa":0.14891608958033375,"spd":0.9869676553664737,"spe":-0.12467068626215093,"status":{"":0.11197840082093505,"tox":0.22385258725724896,"par":-0.5709065333621087,"frz":0.39121727656172006},"volatiles":{"confusion":-0.09236818641679642,"taunt":0.9808704637668879,"disable":0.22924458367206135},"types":{"Steel":0.07634915125846192,"Psychic":0.08375482987268881,"Ground":0.10435514338650323,"Flying":0.8010853695444995,"Dragon":-0.7156480977508044,"Dark":0.28332376958687117,"Ice":0.15415915888476867,"Bug":0.34396454929402764,"Fighting":-0.39329147694778366,"Water":-0.8251437991133193,"Rock":0.5318230592269968,"Poison":-0.5453552489483502,"Ghost":0.7486089270732892,"Normal":-0.5084470312660887},"ability":{"serenegrace":0.7038755563228507,"poisonheal":0.9598479247154403,"moldbreaker":0.712925639637817,"pickpocket":-0.9180030269952805,"guts":0.9295388040069191,"sturdy":0.5117353933975404,"intimidate":0.6416516763702282,"purepower":0.9175991673385435,"cursedbody":-0.5238067202547403,"skilllink":-0.11009873708646545}}},"theirside":{"sideeffects":{"stealthrock":0.6056878196530606,"spikes":0.4087687501829091},"pokemon":{"species":{"Carracosta":-0.4180627645155036,"Cinccino":-0.8796059078699889,"Medicham":-0.5975913797809758,"Froslass":0.9725674073676299,"Haxorus":0.2720956805176675,"Qwilfish":-0.4919814874074348,"Jirachi":-0.5573117607268465,"Heracross":0.709258752025781,"Druddigon":0.573150393145344,"Gliscor":-0.5266809097262047,"Skarmory":0.056048196632245514,"Weavile":-0.7150850628364639},"hp":-0.469982707302645,"atk":0.8662620256521438,"def":0.790742409614705,"spa":-0.03515520687365953,"spd":-0.7653072635583144,"spe":0.8151157784553893,"status":{"":-0.5685921024810626,"tox":0.26102713546436074,"par":-0.6405112742570236},"volatiles":{"confusion":-0.9443226212727187,"substitute":-0.6925672525327773},"types":{"Water":-0.8202049147506175,"Rock":0.7404870161594111,"Normal":-0.3873279232129313,"Fighting":-0.2914232732015606,"Psychic":0.6308921206981646,"Ice":0.35030810699541753,"Ghost":0.22128836557221096,"Dragon":-0.2911035706385606,"Poison":-0.01690058528360646,"Steel":0.11785532295014234,"Bug":0.5409387115007483,"Ground":0.27441034180193163,"Flying":0.8222229066787693,"Dark":0.9293299581326776},"ability":{"":-0.9076769471865674,"moldbreaker":-0.5222866277267465,"intimidate":0.08128648741399994,"serenegrace":-0.22355932286111643}}}},"action":{"move":{"id":{"toxic":-0.012641975911571745,"wish":0.6977728762453514,"icepunch":-0.7629991848755115,"ironhead":0.7243385801195337,"earthquake":-0.8585624235121968,"roost":0.22457774191905022,"knockoff":-0.39401430845451735,"outrage":-0.5210752624739552,"firepunch":0.19111885552155128,"suckerpunch":-0.368038426635549,"swordsdance":-0.6714643956313054,"iciclecrash":0.6995607884458258,"iceshard":0.35556346593223376,"pinmissile":0.91250330663404,"substitute":-0.46391386230508047,"closecombat":-0.9041122340176466,"stealthrock":0.6126409033083475,"spikes":0.4027946407440492,"bravebird":0.8152122778416946,"stoneedge":-0.47006739313857115,"aquajet":0.9580901674750888,"taunt":0.33421271533188657,"destinybond":0.4136589902756751,"waterfall":-0.7833062632484595,"fakeout":-0.9481404286949129,"highjumpkick":-0.14573662971473933,"zenheadbutt":0.35799664569134126,"poisonjab":-0.4637184408089287,"icebeam":0.030119383744083184,"thunderwave":0.4944167515465274,"bulletseed":-0.6162691638840729,"aquatail":-0.43614024334304036,"tailslap":0.936711390112912,"uturn":-0.02188842717948436},"type":{"Poison":-0.4817103099021556,"Normal":-0.4770129116680263,"Ice":-0.6218512751202875,"Steel":-0.5910902429350093,"Ground":-0.8885977647332407,"Flying":0.33645249448928966,"Dark":-0.7557814970012959,"Dragon":-0.9037554600351303,"Fire":-0.37010331467089186,"Bug":-0.19137706333071813,"Fighting":-0.6051938690062078,"Rock":-0.9605497674862259,"Water":-0.5806846670977919,"Ghost":-0.058215066024986495,"Psychic":0.17069575290179895,"Electric":0.5612519898809332,"Grass":-0.8488437148048464},"category":{"status":-0.8846413641765385,"physical":-0.14762977139845668,"special":-0.6434693274835435},"damage":-0.14657742453910558,"status":{"tox":-0.4235099477001068,"par":-0.6729144173539536},"volatile":{"Substitute":-0.8577024879760882,"taunt":0.20634724142282002,"destinybond":-0.9201050618706401},"sideeffect":{"Wish":-0.692661352559607,"stealthrock":-0.5762414744540907,"spikes":-0.6972927927911583},"fieldeffect":{},"accuracy":0.07182124473005885,"target":{"normal":-0.2754633456126006,"self":0.4470783866149962,"allAdjacent":0.6749628326201528,"randomNormal":-0.10236077493412118,"foeSide":0.7272611769246466,"any":-0.13720911167314065}},"switch":{"species":{"Weavile":0.9389742608885223,"Heracross":-0.619405055296764,"Skarmory":-0.32654756429253107,"Gliscor":0.2487719513588736,"Druddigon":0.906951348376892,"Jirachi":-0.1889476982745868,"Qwilfish":-0.7869664654418003,"Cinccino":0.7104534123460841,"Haxorus":-0.0040054313121276235,"Medicham":-0.4864923842163935,"Froslass":-0.6626153521473346,"Carracosta":0.780407156323146},"hp":-0.6676397079037478,"atk":-0.8947451778048735,"def":-0.36359226214825424,"spa":-0.48075262829457727,"spd":-0.3598852329017877,"spe":-0.08904902679031731,"status":{"tox":-0.5317123931390918,"par":-0.5811742589733098},"types":{"Dark":-0.07177346171102403,"Ice":0.2876681261066433,"Bug":-0.4962106986900703,"Fighting":0.6514114830394706,"Steel":-0.3884213253319735,"Flying":-0.08453159412969086,"Ground":-0.22995383489106164,"Dragon":0.615811082611493,"Psychic":0.24329145597513646,"Water":0.02450321454616062,"Poison":-0.876358645777052,"Normal":-0.13401681370040042,"Ghost":-0.48450059566826775,"Rock":-0.6781777112440385},"ability":{"pickpocket":-0.870782299821526,"guts":0.5932586761499503,"sturdy":0.9704112171417384,"poisonheal":-0.5553145988768046,"moldbreaker":0.7224883306715143,"serenegrace":0.4534496081454904,"intimidate":0.809633167576604,"skilllink":-0.3674046663219489,"purepower":-0.9973948572606393,"cursedbody":0.17404496970179695},"item":{"lifeorb":0.11171170462896496,"heracronite":-0.17151918672620514,"leftovers":-0.21918556437993342,"toxicorb":-0.9822288439813972,"airballoon":0.0029646709522414445,"":-0.7147860572948487,"blacksludge":0.38087137427696005,"choiceband":0.780397982212062,"lumberry":-0.9650873143282706,"medichamite":0.3888189760468239},"moves":{"knockoff":0.910468261802731,"swordsdance":-0.8036897157112715,"iciclecrash":0.3450294740887093,"iceshard":-0.151554122577891,"pinmissile":-0.7077373351754161,"substitute":0.36839126974293546,"closecombat":-0.3701768609832956,"roost":-0.2610882990442151,"stealthrock":-0.5737662944422083,"spikes":-0.7662247624032363,"bravebird":-0.6905520442293094,"earthquake":-0.8378471448610617,"toxic":0.19488211165457742,"outrage":0.7146102267507558,"firepunch":-0.872867478213439,"suckerpunch":-0.7624326452309537,"wish":0.15383106029830174,"icepunch":0.12135303925763363,"ironhead":0.4121475785735549,"taunt":-0.12364248300487368,"destinybond":-0.8633128278373108,"waterfall":-0.24591047106126318,"bulletseed":0.23881133093138984,"aquatail":-0.6478558312129788,"tailslap":0.5182274717319427,"uturn":0.02934513708273811,"poisonjab":0.8193326935151739,"fakeout":0.9581414931958281,"highjumpkick":0.014358222492337536,"zenheadbutt":-0.08131328789418202,"icebeam":-0.6497538744143347,"thunderwave":-0.0652864255424892,"stoneedge":-0.834106465235262,"aquajet":0.7877981561533304}}}},"bias":-0.06802453677203132},"5":{"weights":{"state":{"weather":{"":-0.0024828463635821786},"pseudoweather":{},"myside":{"sideeffects":{"spikes":0.46424557064201544,"stealthrock":-0.3091394963420032},"pokemon":{"species":{"Jirachi":0.8743917611421186,"Gliscor":-0.06732579999750393,"Druddigon":-0.9591349644639338,"Weavile":0.11526827272403602,"Heracross":0.1393440171836965,"Skarmory":0.03781754348305149,"Carracosta":-0.6160733813840702,"Qwilfish":0.17143115694911915,"Medicham":0.17496841507727812,"Haxorus":0.5893964826985278,"Froslass":-0.4159028218675882,"Cinccino":-0.850416170625337},"hp":0.8403504126682976,"atk":0.8402574623274313,"def":-0.32975356645936493,"spa":0.8581709136886244,"spd":0.9937812144398912,"spe":0.6839069124594789,"status":{"":-1.0405603093818596,"tox":-0.338474937444516,"par":-0.24179820688645404,"frz":0.0045179636032878735},"volatiles":{"confusion":-0.7157329470305778,"taunt":0.807551423604774,"disable":-0.24217062834148706},"types":{"Steel":0.6778164911134108,"Psychic":-0.5838675348876394,"Ground":0.3559519053352226,"Flying":-0.7872631685561058,"Dragon":-0.11776991037978456,"Dark":0.16933564189069134,"Ice":-0.11701762880822535,"Bug":-0.5618252826581821,"Fighting":0.09613480289175712,"Water":-0.19869260837791122,"Rock":-0.9285039070853007,"Poison":0.7624384935004604,"Ghost":0.8937754308389394,"Normal":-0.7283995071834539},"ability":{"serenegrace":-0.5727922231176714,"poisonheal":-0.755216996200039,"moldbreaker":-0.8980502786859492,"pickpocket":0.23646123741095454,"guts":-0.5893215689625176,"sturdy":0.7198189678320575,"intimidate":0.5309034714737431,"purepower":0.9023710866889387,"cursedbody":-0.037123607233900735,"skilllink":-0.9418185416836047}}},"theirside":{"sideeffects":{"stealthrock":-0.9024843379692173,"spikes":-0.4566856469682124},"pokemon":{"species":{"Carracosta":-0.33998685608038126,"Cinccino":0.40211614078303193,"Medicham":0.6187563033128922,"Froslass":-0.679390491469012,"Haxorus":-0.3441390854260622,"Qwilfish":-0.8543256738585054,"Jirachi":-0.6326925269412655,"Heracross":-0.4252048171754702,"Druddigon":0.16259236580388606,"Gliscor":-0.042782276097745084,"Skarmory":-0.0300420369330034,"Weavile":-0.7501406679097925},"hp":-0.9989142682193203,"atk":-0.546232565789039,"def":0.9755303710873661,"spa":-0.3700892290902327,"spd":-0.5069622569121411,"spe":0.3596052301346331,"status":{"":-0.3952713433721707,"tox":0.25406069208855686,"par":0.6955075260751402},"volatiles":{"confusion":-0.8038858683961223,"substitute":0.2600302480279062},"types":{"Water":0.4404431006904647,"Rock":-0.0915018058701621,"Normal":0.0472876251683331,"Fighting":-0.9524989257503967,"Psychic":0.21975415984287186,"Ice":-0.7783530343378804,"Ghost":0.6421547847680674,"Dragon":-0.4681637803523554,"Poison":-0.7886486114670272,"Steel":0.0827791851344798,"Bug":-0.5018453965741142,"Ground":0.19650195187802963,"Flying":0.6035270931822828,"Dark":0.14825562361409644},"ability":{"":-0.4712813568957608,"moldbreaker":0.8854924687960118,"intimidate":0.5416485474439108,"serenegrace":0.8723625432072966}}}},"action":{"move":{"id":{"toxic":0.6342287624116797,"wish":-0.4265809724690355,"icepunch":0.16548514703995615,"ironhead":0.3632373292192628,"earthquake":-0.7238403376402335,"roost":0.14152252964771694,"knockoff":-0.6575730722092725,"outrage":-0.507980870803029,"firepunch":0.42997145927609415,"suckerpunch":-0.38047493635114726,"swordsdance":-0.2498305381608611,"iciclecrash":-0.341457453650783,"iceshard":0.0033321884095127707,"pinmissile":0.9635304964085591,"substitute":-0.03737038901611056,"closecombat":-0.16117233134086284,"stealthrock":-0.5455771735708304,"spikes":0.7482525076348747,"bravebird":-0.7422972301196669,"stoneedge":0.5839124895643929,"aquajet":0.9190265269388842,"taunt":0.8231484912673404,"destinybond":0.1419246145790729,"waterfall":-0.5291195089904472,"fakeout":0.5023247905936792,"highjumpkick":-0.4752867724451133,"zenheadbutt":0.2354267113648736,"poisonjab":0.8422974935282131,"icebeam":0.5042907457373245,"thunderwave":-0.29748866528343054,"bulletseed":0.1650814894587325,"aquatail":-0.08599702746957494,"tailslap":0.8498530353536937,"uturn":-0.12022602974642149},"type":{"Poison":-0.0686556326172374,"Normal":-0.028346545255800173,"Ice":0.4528274491463463,"Steel":-0.35625760836209164,"Ground":0.4542883921020187,"Flying":-0.2211459074893496,"Dark":-0.531575338870411,"Dragon":-0.5919327678059014,"Fire":0.8110560247635159,"Bug":0.979609775860419,"Fighting":0.2892969593323822,"Rock":0.5958570222060057,"Water":0.6610049723080023,"Ghost":-0.7769435547867869,"Psychic":0.6591191748186112,"Electric":0.9155970250469618,"Grass":-0.6204841162594441},"category":{"status":-0.24389521863547733,"physical":0.08943407266944826,"special":-0.45026588901686315},"damage":-0.9350251083053013,"status":{"tox":0.7685289190408934,"par":-0.21627205823090812},"volatile":{"Substitute":0.6115733712249041,"taunt":0.6166260008288242,"destinybond":0.9338818604911938},"sideeffect":{"Wish":-0.17365009304632295,"stealthrock":0.36492359041191275,"spikes":0.5429701037935903},"fieldeffect":{},"accuracy":0.8098050533591968,"target":{"normal":-0.5791135085220358,"self":-0.3068168887180046,"allAdjacent":-0.08012298564701835,"randomNormal":-0.1524701074735811,"foeSide":-0.7347080738954033,"any":0.4815143422652463}},"switch":{"species":{"Weavile":-0.014124555756083708,"Heracross":-0.1272166254871352,"Skarmory":-0.9913423146112041,"Gliscor":-1.0172846801540874,"Druddigon":0.9467963780307408,"Jirachi":-0.4059043184263511,"Qwilfish":0.7464120773562413,"Cinccino":0.5387569285953576,"Haxorus":0.8435203658415609,"Medicham":-0.9188869204074805,"Froslass":0.8520362798955143,"Carracosta":-0.8205822108655977},"hp":0.10167399504566195,"atk":0.006931244711439866,"def":0.9369557747447015,"spa":-0.8026343087763176,"spd":0.464929793059454,"spe":-0.5771650018141152,"status":{"tox":-0.6109779224260526,"par":0.1274844756542235},"types":{"Dark":0.540063914491725,"Ice":0.10538386529607582,"Bug":-0.21612779349831346,"Fighting":0.040451893950073536,"Steel":0.8455359812273713,"Flying":-0.119199111204709,"Ground":0.5512504351163688,"Dragon":0.9219959941088222,"Psychic":-0.462017585056699,"Water":0.2538256804569868,"Poison":0.5552048649082444,"Normal":0.0657860337869759,"Ghost":-0.6012713282266295,"Rock":0.19330981229932404},"ability":{"pickpocket":0.5407271298148566,"guts":-0.2875667233772834,"sturdy":0.206369283759599,"poisonheal":0.39996336290921436,"moldbreaker":-0.5696038318710422,"serenegrace":0.9506318610272859,"intimidate":-0.734510184455782,"skilllink":0.2589396259740723,"purepower":-0.3932023584047495,"cursedbody":0.38716663460485723},"item":{"lifeorb":0.43058662952913573,"heracronite":-0.6707496831005795,"leftovers":-0.32883762175781284,"toxicorb":-0.27860431389439316,"airballoon":0.6560371928317184,"":-0.5219650563088348,"blacksludge":-0.06211647724990543,"choiceband":0.7114544173703771,"lumberry":0.5890056437824387,"medichamite":-0.2187941939743836},"moves":{"knockoff":0.37205815128408165,"swordsdance":-0.45591017971748127,"iciclecrash":-0.3127687703835279,"iceshard":-0.9837634827172121,"pinmissile":-0.08381820174810306,"substitute":-0.25162149024411695,"closecombat":0.4587219839508019,"roost":0.6072097314401815,"stealthrock":0.4298736430764532,"spikes":0.8261554436716176,"bravebird":-0.6291761530009592,"earthquake":-0.2743105532216704,"toxic":0.9023502972186025,"outrage":-0.30142414106534554,"firepunch":0.7444435423026933,"suckerpunch":-0.1391935797701667,"wish":-0.14170583204184029,"icepunch":-0.6292015550213472,"ironhead":-0.8840379517040464,"taunt":0.47267260711636716,"destinybond":0.6908331743732798,"waterfall":0.9084298241947195,"bulletseed":-0.8469973745151803,"aquatail":-0.24574041012422587,"tailslap":-0.5920009077819591,"uturn":0.9080832595829421,"poisonjab":0.7826220383421307,"fakeout":0.6607857318747348,"highjumpkick":-0.4588806442807005,"zenheadbutt":-0.7235503640682324,"icebeam":-0.4848740945997494,"thunderwave":-0.9994076702339627,"stoneedge":0.3402238789285184,"aquajet":-0.9534734912472626}}}},"bias":-0.06802453677203132},"6":{"weights":{"state":{"weather":{"":0.3354808294677094},"pseudoweather":{},"myside":{"sideeffects":{"spikes":-0.10368182048998069,"stealthrock":0.21149460486912686},"pokemon":{"species":{"Jirachi":-0.02633278674752435,"Gliscor":-0.6360471025107526,"Druddigon":-0.24078240819597055,"Weavile":0.6602626682258118,"Heracross":0.18307029795927254,"Skarmory":-0.3225129965246136,"Carracosta":0.8209044288318466,"Qwilfish":0.10737758396338437,"Medicham":0.37929712827166195,"Haxorus":0.7754351387187908,"Froslass":0.45598559086550683,"Cinccino":0.06501477203810378},"hp":-0.1984796559054711,"atk":-0.470496877943664,"def":-0.7602612237782549,"spa":-0.44592738090727235,"spd":-0.3039198693277158,"spe":0.8946571652039735,"status":{"":-0.5469768612042935,"tox":0.3155291858603774,"par":-0.6304469037355497,"frz":-0.33184283283758803},"volatiles":{"confusion":-0.3953882385195955,"taunt":-0.6928899340063066,"disable":-0.33391983941605075},"types":{"Steel":-0.8072743892513485,"Psychic":0.10176867750696209,"Ground":-0.8759669164886461,"Flying":-0.5099814575322585,"Dragon":0.3765668643527821,"Dark":0.9011821906484146,"Ice":0.09106697069594756,"Bug":0.3460113973865172,"Fighting":0.6837215030043778,"Water":0.7851675868542141,"Rock":-0.05507474775905111,"Poison":-0.02951174573084625,"Ghost":0.9660752778396104,"Normal":0.7664252004341923},"ability":{"serenegrace":-0.12594492240233265,"poisonheal":-0.9543361216191106,"moldbreaker":0.540528719579698,"pickpocket":-0.7843411926662102,"guts":-0.0538106667515922,"sturdy":0.8322942648038285,"intimidate":0.12322673226940895,"purepower":0.36596840249649887,"cursedbody":0.24662151638416496,"skilllink":0.41632202953750935}}},"theirside":{"sideeffects":{"stealthrock":-0.43584334235618305,"spikes":0.3573649873563},"pokemon":{"species":{"Carracosta":0.33831667217245187,"Cinccino":0.04123608098355294,"Medicham":0.34361238452590626,"Froslass":-0.6126784099418773,"Haxorus":0.9589254418291502,"Qwilfish":-0.24836274958555818,"Jirachi":-0.7238482058988918,"Heracross":0.33194887288028696,"Druddigon":-0.17703603956583377,"Gliscor":-0.6043255395082262,"Skarmory":0.4011095066444529,"Weavile":0.356151127999681},"hp":-0.265324060016183,"atk":-0.3685013279686078,"def":0.3395966353964005,"spa":0.2500915719511654,"spd":0.18368204393221557,"spe":-0.4442282921341596,"status":{"":-0.39968929958311855,"tox":0.8815596482896605,"par":0.8501334385918453},"volatiles":{"confusion":-0.5625477725480512,"substitute":-0.6086507916827406},"types":{"Water":-0.15270890889035568,"Rock":-0.10819097413880374,"Normal":-0.6153019651505638,"Fighting":-0.24335394051446022,"Psychic":0.6010882699046638,"Ice":0.4878481141899758,"Ghost":0.5134542679891648,"Dragon":-0.6467434224685286,"Poison":-0.4905750703595552,"Steel":0.2561459131656229,"Bug":-0.19544449113483997,"Ground":0.5141771450456597,"Flying":-0.5019949075343771,"Dark":0.9720436402346396},"ability":{"":0.3830178910555766,"moldbreaker":-0.8871144062661981,"intimidate":-0.18614366781938088,"serenegrace":-0.6661193512592345}}}},"action":{"move":{"id":{"toxic":0.6293219730382592,"wish":-0.11946666272067885,"icepunch":0.6744465069637702,"ironhead":0.9991069088246083,"earthquake":-0.8229582648337236,"roost":-0.7779258669740545,"knockoff":0.16132592357966402,"outrage":0.7894379223464822,"firepunch":0.8593600422373813,"suckerpunch":0.457436474422098,"swordsdance":-0.7010052515826702,"iciclecrash":-0.18925775237752757,"iceshard":-0.5215652919624469,"pinmissile":0.9401339512887414,"substitute":0.8080111966859373,"closecombat":0.026739651573825185,"stealthrock":0.5212572142803484,"spikes":-0.23534960974357302,"bravebird":-0.19585393783780192,"stoneedge":0.8709350556773413,"aquajet":-0.4964914656980315,"taunt":-0.6155966713262044,"destinybond":0.43042995661914274,"waterfall":-0.7085373442852765,"fakeout":-0.9504821824223377,"highjumpkick":0.39021816964103007,"zenheadbutt":-0.17984148105534103,"poisonjab":-0.21968843046022996,"icebeam":-0.8589250250861409,"thunderwave":-0.4771492631465737,"bulletseed":0.9865093055078455,"aquatail":-0.2852702250584569,"tailslap":-0.4081837307082443,"uturn":-0.970860939297479},"type":{"Poison":-0.5638501084832968,"Normal":-0.2726005510815722,"Ice":-0.6427834426928439,"Steel":0.6634337548397484,"Ground":0.15529474927080578,"Flying":-0.26617575504244223,"Dark":0.28582058719360726,"Dragon":-0.5786073979095367,"Fire":0.07565415127764252,"Bug":0.7592767555758706,"Fighting":-0.3067718627004834,"Rock":0.3985254444572593,"Water":-0.5558648777901491,"Ghost":-0.26274327283338295,"Psychic":0.8553616680219318,"Electric":0.25627010739608647,"Grass":0.3669284263541059},"category":{"status":0.7341285869409169,"physical":0.635453277452122,"special":0.44587506943641575},"damage":-0.7093801883923972,"status":{"tox":-0.03982659979359788,"par":-0.45087508281070177},"volatile":{"Substitute":0.3383031608496032,"taunt":-0.25217567551679476,"destinybond":0.3678267062039908},"sideeffect":{"Wish":0.8903570213304315,"stealthrock":0.20039275463141099,"spikes":0.9717344189877342},"fieldeffect":{},"accuracy":-0.6372426694495142,"target":{"normal":0.9119736404522916,"self":-0.18794289625631688,"allAdjacent":-0.015109725131361752,"randomNormal":0.1822497143448977,"foeSide":-0.16797632557675954,"any":-0.5373786518427959}},"switch":{"species":{"Weavile":0.6258866336621223,"Heracross":-0.12389365095902027,"Skarmory":-0.78348593657884,"Gliscor":-0.8165429382677946,"Druddigon":-0.7977916414120388,"Jirachi":0.7411341703850987,"Qwilfish":0.8224547302139218,"Cinccino":-0.475038082311417,"Haxorus":0.9180279297349072,"Medicham":0.9834633156709649,"Froslass":-0.38715305405437794,"Carracosta":-0.42468368278630736},"hp":0.11713453947065018,"atk":0.90413686710077,"def":0.4983894121661545,"spa":-0.2361136128440748,"spd":-0.5861503230249818,"spe":0.9742617465982117,"status":{"tox":-0.3183326284268421,"par":0.686915756523653},"types":{"Dark":0.4637388958713212,"Ice":0.40158987303807414,"Bug":0.7300953486832156,"Fighting":-0.5479824021349944,"Steel":0.2254735109129986,"Flying":-0.7602968994551101,"Ground":-0.05554947279678263,"Dragon":-0.17298606460906824,"Psychic":-0.6393693948018604,"Water":0.008878790887951361,"Poison":-0.3679245421652655,"Normal":0.7157208528579612,"Ghost":-0.7050932854330036,"Rock":0.8461284172356668},"ability":{"pickpocket":0.9852588080627256,"guts":-0.8492479941468964,"sturdy":-0.0880069050655851,"poisonheal":-0.5805374715145372,"moldbreaker":-0.34614407636439637,"serenegrace":0.9644187906790793,"intimidate":0.9171476139282668,"skilllink":0.7507513483300235,"purepower":0.264050074826256,"cursedbody":0.07691399648822239},"item":{"lifeorb":-0.2004152279142729,"heracronite":0.4961688735093861,"leftovers":-0.6120175745463103,"toxicorb":0.17549869246512279,"airballoon":0.7652076762988014,"":0.5638033408937114,"blacksludge":-0.15927343527107674,"choiceband":-0.39683518780100313,"lumberry":-0.5169069995458022,"medichamite":-0.2226495079163211},"moves":{"knockoff":-0.6860881997848639,"swordsdance":-0.7202639136946782,"iciclecrash":0.8058991136072047,"iceshard":-0.35488545406995586,"pinmissile":-0.7576910144636986,"substitute":-0.5875449432746094,"closecombat":-0.7475618275400344,"roost":-0.18344914830299114,"stealthrock":0.10373063844059967,"spikes":-0.05446128164816022,"bravebird":-0.8662486298120773,"earthquake":-0.27320137868565497,"toxic":0.4004665246032611,"outrage":-0.37188212364982487,"firepunch":0.3686424957718484,"suckerpunch":-0.6349698110973129,"wish":0.6325921638794423,"icepunch":-0.12836706598298653,"ironhead":-0.5115527233757078,"taunt":-0.009456883293330609,"destinybond":0.32191405604233747,"waterfall":-0.8290484322255489,"bulletseed":0.02243839357571297,"aquatail":0.7915775017219383,"tailslap":0.8430199236471853,"uturn":-0.6093516532735533,"poisonjab":0.05247380741614991,"fakeout":0.7164824243949877,"highjumpkick":-0.7702396929468702,"zenheadbutt":-0.646284564383258,"icebeam":0.8079974703787816,"thunderwave":0.7260121110598172,"stoneedge":0.6370367213754752,"aquajet":-0.10987137637208282}}}},"bias":-0.06802453677203132},"7":{"weights":{"state":{"weather":{"":-0.013739302740622275},"pseudoweather":{},"myside":{"sideeffects":{"spikes":0.9025146450507263,"stealthrock":-0.49859300827946545},"pokemon":{"species":{"Jirachi":0.6407877136525777,"Gliscor":-0.22664972334530406,"Druddigon":-1.0175940413722528,"Weavile":0.9247974496535675,"Heracross":-0.7919108865306496,"Skarmory":-0.4313684136538356,"Carracosta":-0.83243725914279,"Qwilfish":0.597918956328856,"Medicham":0.31635736183253593,"Haxorus":0.5874165502765807,"Froslass":0.2437395110106948,"Cinccino":-0.5752519974300583},"hp":0.5519637017239315,"atk":0.24916650908405896,"def":0.2729114459990978,"spa":-0.9353383988550632,"spd":-0.07681368050929455,"spe":0.8028701413684755,"status":{"":0.7406318249692175,"tox":-0.7755291814864459,"par":0.04167159764342042,"frz":0.061421278611344096},"volatiles":{"confusion":0.7297332451753882,"taunt":0.3764867247993963,"disable":0.8301410508270552},"types":{"Steel":-0.5581709443981246,"Psychic":0.15595672675393382,"Ground":-0.9268179681056152,"Flying":0.0514622086297025,"Dragon":-0.1415843208423616,"Dark":0.39599638206879667,"Ice":0.6482357870003915,"Bug":-0.7547072954006128,"Fighting":0.028281349519553398,"Water":-0.33578465254901246,"Rock":0.6829292456996061,"Poison":0.14760359651852983,"Ghost":0.8420794003206322,"Normal":-0.6415857269699337},"ability":{"serenegrace":0.40897441529119866,"poisonheal":0.8947732864059768,"moldbreaker":0.6486249386056124,"pickpocket":-0.2723983911319518,"guts":-0.32633206103992196,"sturdy":0.7702472615866103,"intimidate":-0.7639910494477546,"purepower":-0.24633505523333765,"cursedbody":0.94499917322866,"skilllink":-0.9872067596073175}}},"theirside":{"sideeffects":{"stealthrock":-0.8095004035677804,"spikes":-0.5463880731303965},"pokemon":{"species":{"Carracosta":-0.9381034984149571,"Cinccino":0.9295928520001049,"Medicham":-0.644004010882224,"Froslass":-0.9908766767455647,"Haxorus":0.9790873315510658,"Qwilfish":-0.8036953595462235,"Jirachi":-0.5795522112092597,"Heracross":-0.3091919404388003,"Druddigon":0.6639635670168601,"Gliscor":-0.2260204399770093,"Skarmory":0.6553463922535381,"Weavile":0.2914428179163238},"hp":-0.4540500269619543,"atk":0.9496333737298337,"def":-0.10518084880667007,"spa":-0.20297342633785923,"spd":0.15843136593509158,"spe":-0.41870617127092236,"status":{"":0.19607449281504005,"tox":-0.5243998634250002,"par":-0.020382617841743392},"volatiles":{"confusion":0.6343111281417331,"substitute":-0.7694474324598719},"types":{"Water":-0.637266885048407,"Rock":-0.4042786497019749,"Normal":0.7013706134631519,"Fighting":-0.7184156225295163,"Psychic":-0.39760943663889486,"Ice":0.8223365631530057,"Ghost":-0.190423609043629,"Dragon":0.38022228978150563,"Poison":0.627812036398492,"Steel":0.6209371440355032,"Bug":0.6712904423495792,"Ground":0.27987157284669845,"Flying":-0.26195894464998143,"Dark":0.017843853934755693},"ability":{"":0.34230586685137654,"moldbreaker":0.22355635644953897,"intimidate":-0.6884115083191207,"serenegrace":0.23299219985320133}}}},"action":{"move":{"id":{"toxic":0.050000385853250215,"wish":0.3804729535599338,"icepunch":-0.8860896071550255,"ironhead":-0.8269314191171402,"earthquake":-0.9039693892623383,"roost":-0.07798378590476451,"knockoff":0.09674632488917201,"outrage":0.6620063531783327,"firepunch":0.23526025381683624,"suckerpunch":-0.6984260783565119,"swordsdance":0.006943055769652029,"iciclecrash":0.11519455510885941,"iceshard":0.8947676021783115,"pinmissile":0.654334068786631,"substitute":0.23751333471332092,"closecombat":0.44580647950247965,"stealthrock":-0.04770738957394823,"spikes":-0.39621782025073254,"bravebird":-0.3617504316099292,"stoneedge":-0.027372230968441415,"aquajet":-0.8348589901313774,"taunt":-0.41166539793510104,"destinybond":-0.4721305184115363,"waterfall":-0.0229805835989354,"fakeout":-0.31956148805741424,"highjumpkick":0.9789856843273057,"zenheadbutt":0.19549061660197609,"poisonjab":-0.45355227283643956,"icebeam":0.9871125679618622,"thunderwave":0.9165038285197964,"bulletseed":-0.2407750593367308,"aquatail":0.030185374082790428,"tailslap":-0.44743522301165717,"uturn":0.1913125449297648},"type":{"Poison":0.42066466554281323,"Normal":0.5840543626711056,"Ice":-0.6571927468987458,"Steel":-0.24751088335428006,"Ground":-0.9550614749514735,"Flying":-0.48012941942482384,"Dark":-0.4214107066499615,"Dragon":0.08997434043758604,"Fire":0.5902491139734294,"Bug":-0.799640764230424,"Fighting":0.09264034870442917,"Rock":0.38125641764452084,"Water":0.6583149814563511,"Ghost":-0.5692377355924485,"Psychic":0.0018505976597835705,"Electric":-0.3735448479713024,"Grass":0.5898371482498486},"category":{"status":-0.04759567815913166,"physical":-0.17171065799976648,"special":0.15620551796961823},"damage":-0.7379844261287697,"status":{"tox":0.3454401931165247,"par":-0.71901984196505},"volatile":{"Substitute":-0.21699463734820634,"taunt":-0.20964456846796065,"destinybond":0.012523298412696615},"sideeffect":{"Wish":0.4032887413184061,"stealthrock":-0.5534958682854989,"spikes":0.6616295108386068},"fieldeffect":{},"accuracy":0.8174135108302146,"target":{"normal":0.7671756891775574,"self":0.524761471502026,"allAdjacent":0.3078323373437041,"randomNormal":0.6782826358500724,"foeSide":0.20532862472621508,"any":0.27783534538946925}},"switch":{"species":{"Weavile":-0.21230554229993678,"Heracross":-0.07915698611595845,"Skarmory":-0.17531131472550854,"Gliscor":0.8126518366311349,"Druddigon":0.7192948219285421,"Jirachi":-0.8724829522703113,"Qwilfish":0.9920619384957505,"Cinccino":-0.3913814191393957,"Haxorus":-0.6294007591810131,"Medicham":0.7219135315653533,"Froslass":0.5533162234333444,"Carracosta":-0.9491595448534772},"hp":-0.5811309275817228,"atk":-0.6591753008927365,"def":-0.20316397769076378,"spa":0.23640241835087464,"spd":0.5171681015237293,"spe":-0.8139769730346285,"status":{"tox":-0.3009597620070556,"par":-0.8385322197672962},"types":{"Dark":-0.6772118112495478,"Ice":0.40550430937772475,"Bug":-0.9430553377552764,"Fighting":0.567016058469052,"Steel":-0.7399125955367665,"Flying":0.9234466650953986,"Ground":0.3714384547345047,"Dragon":0.21442065788841663,"Psychic":-0.5678719348068357,"Water":0.9768584713504712,"Poison":0.6284995559694098,"Normal":-0.9649165969890531,"Ghost":0.49753596977339143,"Rock":-0.43458538149581866},"ability":{"pickpocket":-0.29600175981877197,"guts":-0.7833263666687955,"sturdy":0.13389702451979796,"poisonheal":-0.5642386182320206,"moldbreaker":-0.3054375053559597,"serenegrace":-0.3818276176464783,"intimidate":-0.1702122889198554,"skilllink":-0.9895100507060796,"purepower":-0.5311642498789979,"cursedbody":0.6869688330398018},"item":{"lifeorb":-0.22302449622442044,"heracronite":0.16906038830906134,"leftovers":-0.43745144091334653,"toxicorb":0.9040808436279107,"airballoon":-0.30126123398841803,"":-0.5446661507668172,"blacksludge":-0.5235820715609396,"choiceband":0.016196453761747047,"lumberry":0.9497087764241336,"medichamite":0.49539890438899725},"moves":{"knockoff":0.33724540798034036,"swordsdance":0.6360834262658464,"iciclecrash":-0.3664171934242485,"iceshard":-0.868785972109249,"pinmissile":0.07501124246695179,"substitute":-0.3155365889392483,"closecombat":0.32045331490237583,"roost":-0.7727346858522427,"stealthrock":-0.24483062139744133,"spikes":-0.5339367940830329,"bravebird":0.5753614707523558,"earthquake":-0.09953697909750528,"toxic":0.6007971435428009,"outrage":-0.8727545570701555,"firepunch":-0.8962056210672432,"suckerpunch":-0.7573967243501142,"wish":0.27981319554016393,"icepunch":0.30814287189165723,"ironhead":0.660421680448994,"taunt":0.331553002959851,"destinybond":-0.43156454605720995,"waterfall":0.3042779075203925,"bulletseed":-0.06275668191481165,"aquatail":-0.4299113348801066,"tailslap":-0.0405117799924254,"uturn":0.7616259054266811,"poisonjab":-0.13352649871560332,"fakeout":0.5660264991011612,"highjumpkick":0.31923708286895547,"zenheadbutt":-0.3208431398521894,"icebeam":-0.5735518630868444,"thunderwave":0.1860953600810462,"stoneedge":0.20235721672532808,"aquajet":-0.8591416539175792}}}},"bias":-0.06802453677203132},"8":{"weights":{"state":{"weather":{"":-0.411653082799041},"pseudoweather":{},"myside":{"sideeffects":{"spikes":-0.9215114316311624,"stealthrock":-0.7096219415303734},"pokemon":{"species":{"Jirachi":-0.9132154469486002,"Gliscor":0.5642592332049701,"Druddigon":0.8182575180197929,"Weavile":0.4770487239086226,"Heracross":0.6252578736083708,"Skarmory":-0.7186329561950358,"Carracosta":-0.009423343751122333,"Qwilfish":-0.5102429109016948,"Medicham":0.693902897859358,"Haxorus":0.1838623433093727,"Froslass":0.3954967522868751,"Cinccino":-0.41665302867043513},"hp":0.5562061388812868,"atk":-0.22460427025250349,"def":0.6336413382992618,"spa":0.9499800845286182,"spd":0.8873694558600305,"spe":-0.40491010664680677,"status":{"":0.6687014316103906,"tox":0.41615513090091033,"par":0.17794771726793612,"frz":-0.4275575184504617},"volatiles":{"confusion":-0.890779524984828,"taunt":0.3568123726191112,"disable":-0.043196465265130435},"types":{"Steel":-0.09402776817022823,"Psychic":0.8103961967281623,"Ground":0.5676509793820286,"Flying":0.24493601458498898,"Dragon":0.7972487484773201,"Dark":-1.0016800236368841,"Ice":-0.6350173497809145,"Bug":0.28676849121103476,"Fighting":-0.9533315666577585,"Water":-0.12850837105914273,"Rock":-0.5608196100987621,"Poison":0.6084787060017334,"Ghost":0.16961513965543284,"Normal":0.5019650473585822},"ability":{"serenegrace":-0.29298341226498686,"poisonheal":-0.4563348082529143,"moldbreaker":-0.7722703408966758,"pickpocket":-0.752797824724934,"guts":-0.04729876269309198,"sturdy":-0.8592233324296561,"intimidate":-0.6502634399601543,"purepower":-0.199682030227311,"cursedbody":-0.3913019735008243,"skilllink":0.5197960076244192}}},"theirside":{"sideeffects":{"stealthrock":-0.21190481224994462,"spikes":0.8553277512835555},"pokemon":{"species":{"Carracosta":-0.5850535963796796,"Cinccino":-0.06374642083925183,"Medicham":-0.44276856390553543,"Froslass":-0.11419967957829619,"Haxorus":-0.23654137549243728,"Qwilfish":0.757883089346487,"Jirachi":0.8202558816515524,"Heracross":0.3163730773204435,"Druddigon":0.8415388948093777,"Gliscor":-0.4365395547413114,"Skarmory":-0.8197703069081925,"Weavile":-0.16156797472309153},"hp":-0.6689281029547894,"atk":0.42788244264887854,"def":0.41830339315765686,"spa":0.10921698572444069,"spd":-0.8416447741228242,"spe":-0.3457106948345061,"status":{"":0.30236187460539216,"tox":-0.46249449835684,"par":0.7286000840188913},"volatiles":{"confusion":-0.07916155335382721,"substitute":-0.0991259891589098},"types":{"Water":-0.2514359245774055,"Rock":0.6536850442327756,"Normal":-0.9296487362713985,"Fighting":-0.07239526438757976,"Psychic":-0.5316434539476584,"Ice":-0.35632122511616954,"Ghost":-0.48485633273608353,"Dragon":-0.7420859443545066,"Poison":0.26355058439829826,"Steel":0.6113900448008591,"Bug":-0.6169713339168877,"Ground":0.8095643378498113,"Flying":-0.6614052994622869,"Dark":-0.04644913414207401},"ability":{"":0.5547355745019223,"moldbreaker":0.39087388552707913,"intimidate":0.2715591895287966,"serenegrace":-0.14797433259581547}}}},"action":{"move":{"id":{"toxic":0.20115299309629867,"wish":-0.19274596877454275,"icepunch":0.5667390331019626,"ironhead":0.6587821152082771,"earthquake":-0.7804220257029061,"roost":0.6358854700806669,"knockoff":-0.7965566824984496,"outrage":0.937923966378313,"firepunch":0.6412891449849667,"suckerpunch":-0.10353398858370921,"swordsdance":0.9808779788263847,"iciclecrash":-0.6414495764214042,"iceshard":0.14795783696447273,"pinmissile":0.8414002734847892,"substitute":-0.35482166784975533,"closecombat":-0.5080741841356389,"stealthrock":0.2969933652993814,"spikes":-0.7845090799862218,"bravebird":0.006935655772438252,"stoneedge":0.042744345984667496,"aquajet":0.9551014699243017,"taunt":-0.41798513511513447,"destinybond":0.9063471163200538,"waterfall":-0.8251585127413215,"fakeout":0.9721396789248957,"highjumpkick":0.7118557561504502,"zenheadbutt":-0.8723440585257936,"poisonjab":0.5991174804904501,"icebeam":-0.361361229804551,"thunderwave":0.621218927754736,"bulletseed":0.00803463606213216,"aquatail":-0.8033747787559995,"tailslap":0.43495934814200554,"uturn":-0.08725598648221489},"type":{"Poison":0.6441009789377674,"Normal":0.6489749856160903,"Ice":0.25889008720935347,"Steel":-0.5065892849324065,"Ground":0.02374793885513857,"Flying":0.3397197031091774,"Dark":0.7128436582623991,"Dragon":-0.45358676897547207,"Fire":0.5689911251149704,"Bug":-0.8579050068034046,"Fighting":-0.5291484724305993,"Rock":-0.7605676625597483,"Water":0.564569147243386,"Ghost":0.7782234418218859,"Psychic":0.4393549463006705,"Electric":-0.2461112190068242,"Grass":-0.4630457821723795},"category":{"status":-0.37477902520493334,"physical":0.4552001548749367,"special":-0.7894233103027859},"damage":-0.9877822843297636,"status":{"tox":-0.681953258239009,"par":0.3483056778600129},"volatile":{"Substitute":0.8940312647633184,"taunt":-0.10216609183920378,"destinybond":0.8733756529793393},"sideeffect":{"Wish":0.381622375001883,"stealthrock":0.27277813221552044,"spikes":-0.17601280000946964},"fieldeffect":{},"accuracy":-0.3370505628776795,"target":{"normal":-0.8967349355345837,"self":-0.025019076203311244,"allAdjacent":0.13161087910101102,"randomNormal":-0.9548123756296727,"foeSide":0.20956108858866665,"any":-0.5489451971504866}},"switch":{"species":{"Weavile":-0.6282809615271976,"Heracross":-0.24670459030757863,"Skarmory":0.4640772094518737,"Gliscor":-0.13254253050848325,"Druddigon":-0.27419705747761824,"Jirachi":0.28025494860017997,"Qwilfish":0.24724489719890386,"Cinccino":0.852020463663031,"Haxorus":-0.7406104622608995,"Medicham":-0.32414331624935455,"Froslass":-0.9154940836859518,"Carracosta":-0.3740912061232508},"hp":-0.6784135818092211,"atk":0.3440095914896314,"def":0.7014449743076359,"spa":-0.34395290011480045,"spd":0.21588502412060445,"spe":-0.39255997177877644,"status":{"tox":0.8215258892473861,"par":-0.5607789800219085},"types":{"Dark":-0.11272413635473874,"Ice":0.9434361146587062,"Bug":-0.45004761589208586,"Fighting":-0.9649231740233435,"Steel":-0.14391989179664,"Flying":0.09324270700289633,"Ground":-0.10872927934431059,"Dragon":0.6264976975328292,"Psychic":0.8629045211885606,"Water":0.4119026064052132,"Poison":0.22076191630133835,"Normal":0.40060632409020636,"Ghost":-0.7918083265619464,"Rock":0.6795446861061981},"ability":{"pickpocket":0.061078542157488785,"guts":-0.0736800968821103,"sturdy":0.27988647295608665,"poisonheal":0.022029115738308624,"moldbreaker":0.9639289601624473,"serenegrace":-0.4209582813492929,"intimidate":-0.813772659855418,"skilllink":0.04053309656879411,"purepower":-0.6531868249180905,"cursedbody":0.6344516890797358},"item":{"lifeorb":0.3302628616054267,"heracronite":-0.7148360464953103,"leftovers":-0.6133175151780632,"toxicorb":-0.3595204275538188,"airballoon":-0.11826637584490547,"":0.8402936410187979,"blacksludge":0.6650726418726727,"choiceband":0.46221817410106236,"lumberry":0.0479214657645648,"medichamite":0.8711043869555524},"moves":{"knockoff":-0.0742743385443925,"swordsdance":-0.36776535818393186,"iciclecrash":-0.644899606425021,"iceshard":0.9796263170974115,"pinmissile":-0.7543735089419377,"substitute":-0.8323238776922706,"closecombat":-0.49421919817373716,"roost":0.3575414216837057,"stealthrock":-0.904971828077615,"spikes":0.33673210302271306,"bravebird":-0.2129723197018203,"earthquake":-0.2214301270905285,"toxic":-0.045454100846037127,"outrage":-0.25478807765325634,"firepunch":0.22505785309791101,"suckerpunch":-0.10457049538576471,"wish":0.15354915851374118,"icepunch":-0.7447214104214819,"ironhead":-0.9583688933099568,"taunt":-0.2524953812978685,"destinybond":-0.34571034668214695,"waterfall":0.29728882007965574,"bulletseed":0.5147257914380473,"aquatail":0.24352712553352507,"tailslap":0.21850917952442062,"uturn":0.32175458956039005,"poisonjab":0.034621892814656864,"fakeout":-0.7404449855065893,"highjumpkick":0.71917377156075,"zenheadbutt":0.7509430321019832,"icebeam":0.34679914004300105,"thunderwave":0.9543320903341295,"stoneedge":-0.9388921303927317,"aquajet":-0.22092812274935442}}}},"bias":-0.06802453677203132},"9":{"weights":{"state":{"weather":{"":-0.8602607216251406},"pseudoweather":{},"myside":{"sideeffects":{"spikes":0.0621300072806226,"stealthrock":-0.6587872508205866},"pokemon":{"species":{"Jirachi":0.1944689965106742,"Gliscor":-0.9543956537074803,"Druddigon":0.39332048250945173,"Weavile":0.6990519612729477,"Heracross":0.23194997091316727,"Skarmory":-0.06493212933288592,"Carracosta":-0.6061062246740816,"Qwilfish":-0.9846984359799138,"Medicham":0.8423523555454806,"Haxorus":-0.654773537238637,"Froslass":0.6113613321778835,"Cinccino":-0.12838874262002606},"hp":0.012196178994857995,"atk":-0.909752329492258,"def":0.49239979597502703,"spa":-0.3116212479393978,"spd":0.8165123771526812,"spe":-0.5745058248210105,"status":{"":-0.10608211046355029,"tox":-0.3465875555344358,"par":-0.29698819888735983,"frz":0.10495364697497739},"volatiles":{"confusion":0.4907529230500207,"taunt":-0.548255091654871,"disable":0.4447636949523184},"types":{"Steel":0.13915020581433588,"Psychic":0.3085854892077757,"Ground":-0.9835033373897748,"Flying":-0.9844894370866922,"Dragon":-0.8214261466877251,"Dark":0.19469046608165314,"Ice":-0.4452703903846211,"Bug":0.057294377989740894,"Fighting":-0.3864177040671276,"Water":0.29783516940721055,"Rock":-0.06132610152094223,"Poison":0.4688455617515048,"Ghost":0.5027032392415012,"Normal":-0.23953420854311067},"ability":{"serenegrace":-0.891963091534455,"poisonheal":-0.10945103298546441,"moldbreaker":-0.07682046358657467,"pickpocket":-0.7163425413756382,"guts":0.8813844111820573,"sturdy":0.5841620765117812,"intimidate":0.319413441447824,"purepower":0.6512868123277356,"cursedbody":-0.6137005695702307,"skilllink":0.2824402060673931}}},"theirside":{"sideeffects":{"stealthrock":0.63180660454936,"spikes":-0.214655656859003},"pokemon":{"species":{"Carracosta":-0.15917271547636283,"Cinccino":0.14714251738655607,"Medicham":-0.37914393189237994,"Froslass":0.8124024849573871,"Haxorus":0.8385040245276574,"Qwilfish":-0.784065113575444,"Jirachi":0.1900995849527191,"Heracross":-0.5514970961060394,"Druddigon":0.7188984198674057,"Gliscor":0.771660049252927,"Skarmory":-0.023300363057278516,"Weavile":0.4052081177239704},"hp":-0.5383836631441895,"atk":-0.48539260349577895,"def":-0.8997131048048611,"spa":-0.3732296621125504,"spd":-0.6963834317904048,"spe":-0.8465814177175106,"status":{"":-0.6022826223620737,"tox":0.3562293479372365,"par":-0.827012116882164},"volatiles":{"confusion":-0.52621472396328,"substitute":-0.3796756021771155},"types":{"Water":-0.15079682511935852,"Rock":0.47279340258667857,"Normal":-0.014782700085946704,"Fighting":-0.6237460089154264,"Psychic":-0.27968876141265303,"Ice":-0.029088621825384617,"Ghost":-0.33399433879061324,"Dragon":0.35234380913476293,"Poison":0.24622907295916915,"Steel":-0.5670912986309182,"Bug":-0.6402165956172506,"Ground":0.1564629215219656,"Flying":-0.8900130292896337,"Dark":0.29791354337737347},"ability":{"":-1.0483221935391782,"moldbreaker":0.01348002698577744,"intimidate":-0.6109247693541102,"serenegrace":0.4094351507155321}}}},"action":{"move":{"id":{"toxic":0.11372136008291917,"wish":0.5928869241124639,"icepunch":-0.9458233012592405,"ironhead":0.757192623712629,"earthquake":-0.10546465215279298,"roost":0.8954789691184883,"knockoff":0.6808352605795971,"outrage":-0.14989350048343061,"firepunch":0.6812743202792695,"suckerpunch":-0.5245590307808894,"swordsdance":-0.45599143002315323,"iciclecrash":0.1559244203467019,"iceshard":0.4125525170472244,"pinmissile":0.12184427879148751,"substitute":-0.2814640368958776,"closecombat":-0.17644260129598122,"stealthrock":-0.15436545521902417,"spikes":0.35315753278895706,"bravebird":-0.31485522127450755,"stoneedge":-0.9220703355532648,"aquajet":0.015215238205300352,"taunt":-0.0037928906855690947,"destinybond":0.14388658753926453,"waterfall":0.8396264416530301,"fakeout":0.4924023975362517,"highjumpkick":-0.8198795826283769,"zenheadbutt":0.28944921431442916,"poisonjab":-0.42318964671912757,"icebeam":0.9755652208679697,"thunderwave":0.8723320038711586,"bulletseed":-0.4352174422428146,"aquatail":0.9029766052271633,"tailslap":-0.6540849867489227,"uturn":-0.19557081804043097},"type":{"Poison":-0.8757114467126528,"Normal":0.9901489599799084,"Ice":0.4555853309273198,"Steel":-0.1543040909638318,"Ground":-0.466972674863707,"Flying":0.9187582787793438,"Dark":-0.15757317515152414,"Dragon":0.6209811839197221,"Fire":-0.16931388428412797,"Bug":0.13143705120170868,"Fighting":-0.32924790347895616,"Rock":-0.8650747150708303,"Water":-0.8839245642540683,"Ghost":0.40420816861096087,"Psychic":-0.912355033493176,"Electric":0.3381036420196093,"Grass":0.5118520493515604},"category":{"status":-0.5482527579037328,"physical":0.4838244118993,"special":-0.03940908070232485},"damage":0.43983167422449104,"status":{"tox":0.21771074484028943,"par":0.5586969878838222},"volatile":{"Substitute":0.8357681014442453,"taunt":-0.34781218489669286,"destinybond":-0.18537136395901044},"sideeffect":{"Wish":0.22921074729443314,"stealthrock":-0.36007559086496604,"spikes":0.4338031498373522},"fieldeffect":{},"accuracy":-0.5563085567479097,"target":{"normal":-0.6183685356277244,"self":0.27709007967037314,"allAdjacent":-0.7159587384395322,"randomNormal":-0.05751883063514669,"foeSide":-0.12882418643093616,"any":0.5098087142473793}},"switch":{"species":{"Weavile":-0.8643074707110858,"Heracross":-0.5801481099621291,"Skarmory":-0.13885361624096992,"Gliscor":-0.6601292641531925,"Druddigon":0.45396374026344777,"Jirachi":0.1711420232475387,"Qwilfish":0.9349681356599437,"Cinccino":0.18078491276296427,"Haxorus":0.08118303336391806,"Medicham":-0.16716275122828073,"Froslass":0.8055115887412208,"Carracosta":0.40993157349222425},"hp":0.7215389832221623,"atk":-0.42443926022246703,"def":-0.42999859277421304,"spa":0.8714697959292913,"spd":0.7554985027611814,"spe":-0.4444573936029035,"status":{"tox":0.21370222165748337,"par":-0.07499880872821141},"types":{"Dark":0.5291086003264862,"Ice":-0.6346337439578287,"Bug":0.19012340650051485,"Fighting":-0.5929706594060753,"Steel":-0.7887377587678515,"Flying":-0.2001772967019821,"Ground":-0.5762293631758392,"Dragon":-0.29751550557841755,"Psychic":0.43444533082318726,"Water":-0.19223677594098415,"Poison":-0.4261334015954179,"Normal":0.6260866445734979,"Ghost":0.8234491346385724,"Rock":0.775377288662456},"ability":{"pickpocket":0.25850969347943786,"guts":-0.5363058185534477,"sturdy":-0.44264582937044045,"poisonheal":0.7675665612360697,"moldbreaker":0.40649814333529166,"serenegrace":0.9416140541357261,"intimidate":0.3177678043776675,"skilllink":0.9334957809765853,"purepower":0.0009060472584492274,"cursedbody":-0.8939161521720638},"item":{"lifeorb":0.9024839905323526,"heracronite":-0.8457653677886596,"leftovers":-0.20962965683542567,"toxicorb":-0.7306418848084614,"airballoon":-0.6400729176072224,"":-0.5374752782474809,"blacksludge":0.8789945680814961,"choiceband":0.9536734933173373,"lumberry":-0.5771697336025436,"medichamite":-0.4813874097567252},"moves":{"knockoff":-0.7539388988077732,"swordsdance":0.22281900261829557,"iciclecrash":-0.8038264833023079,"iceshard":0.12646503422114944,"pinmissile":0.9772838660457577,"substitute":0.4699633559073644,"closecombat":-0.22493489696651192,"roost":-0.6327003358438258,"stealthrock":0.21096212466375436,"spikes":0.4479263800282327,"bravebird":0.8295772520510205,"earthquake":0.39066551101348745,"toxic":0.03866991063846076,"outrage":0.8878242891572857,"firepunch":-0.6288960761739731,"suckerpunch":0.384271186242394,"wish":0.3016384714763287,"icepunch":-0.9432491184133434,"ironhead":0.09790060746762119,"taunt":-0.08832843482388819,"destinybond":0.5182384855817679,"waterfall":0.322345346053837,"bulletseed":0.22159879439946006,"aquatail":0.9616410023745389,"tailslap":-0.04751271578528161,"uturn":-0.6231826093518814,"poisonjab":0.48306460179271626,"fakeout":0.7194853841320721,"highjumpkick":-0.2697734153883937,"zenheadbutt":0.6586252263808805,"icebeam":0.5531924652207372,"thunderwave":0.48047709711474385,"stoneedge":0.5482606736361643,"aquajet":-0.6067121775898471}}}},"bias":-0.06802453677203132},"10":{"weights":{"state":{"weather":{"":-0.9038506612213839},"pseudoweather":{},"myside":{"sideeffects":{"spikes":0.017438464258662516,"stealthrock":0.4118582062192918},"pokemon":{"species":{"Jirachi":-0.6546045522414439,"Gliscor":-0.8830482038115821,"Druddigon":0.5940668834287797,"Weavile":0.30199404196399887,"Heracross":0.7047551492943972,"Skarmory":-0.8536655474377841,"Carracosta":0.9652998191691466,"Qwilfish":-0.9460095898520762,"Medicham":-0.4177247071780501,"Haxorus":0.5021187473359585,"Froslass":0.8820337254730983,"Cinccino":-0.8832529429303579},"hp":-0.5949165328216389,"atk":-0.1342305185365917,"def":-0.631945688982297,"spa":0.11968219472346674,"spd":-0.6026511711819167,"spe":-0.7979040630188555,"status":{"":0.030039958804427544,"tox":-0.5010111654082997,"par":-0.4973105060077093,"frz":-0.02526366909765604},"volatiles":{"confusion":-0.2659265468760925,"taunt":-0.6543322585849705,"disable":0.8772696682315804},"types":{"Steel":0.25685186382661324,"Psychic":0.9352351563919783,"Ground":0.36197943566012347,"Flying":-0.14687333600216082,"Dragon":0.13129018455322494,"Dark":0.41493944121531295,"Ice":-0.7992713161320243,"Bug":-0.30922171440161883,"Fighting":-0.7116790470956077,"Water":-0.461373819016639,"Rock":-0.5360865046457772,"Poison":-0.398171314766246,"Ghost":0.7981153594573902,"Normal":0.866527171452339},"ability":{"serenegrace":-0.9567038764514699,"poisonheal":-0.6699182973614775,"moldbreaker":0.6047536342701456,"pickpocket":-0.19724580824382637,"guts":-0.124453380037041,"sturdy":0.2964030169876928,"intimidate":0.6211808744798728,"purepower":-0.262164643761992,"cursedbody":0.12796821466400132,"skilllink":0.11907886637565879}}},"theirside":{"sideeffects":{"stealthrock":-0.2784463301823886,"spikes":0.17235079407163512},"pokemon":{"species":{"Carracosta":-0.19735589567181303,"Cinccino":0.4345393933673015,"Medicham":0.41556074794912923,"Froslass":-0.5338593958247172,"Haxorus":-0.09844192919865627,"Qwilfish":-0.22153276225586607,"Jirachi":0.7179075999670477,"Heracross":-0.3204110542858788,"Druddigon":0.8158262935687143,"Gliscor":-0.3874103689073581,"Skarmory":0.1594153144257915,"Weavile":-0.7274694638301368},"hp":-0.7087613609929929,"atk":0.7581966903773099,"def":0.12787251224625618,"spa":0.15796796323550097,"spd":-0.744602610721108,"spe":0.13586994772505834,"status":{"":-0.6678208293742324,"tox":-0.10920469845178657,"par":0.39646793278973586},"volatiles":{"confusion":0.8233157129228483,"substitute":-0.8023311491182352},"types":{"Water":0.36194509111879175,"Rock":-0.7577402495488353,"Normal":0.45048480337350416,"Fighting":0.418119402525332,"Psychic":0.929547975113993,"Ice":0.865127122016428,"Ghost":0.007739379766549097,"Dragon":0.9494134139509746,"Poison":0.6383068690698492,"Steel":-0.757156584323361,"Bug":-0.03080466280039829,"Ground":-0.1260849431796084,"Flying":0.9678441736394267,"Dark":0.7977050638538848},"ability":{"":-0.28025168724705374,"moldbreaker":0.108732815776034,"intimidate":0.0685014354257937,"serenegrace":-0.49817081707488936}}}},"action":{"move":{"id":{"toxic":-0.6750819504115216,"wish":-0.8467087572586802,"icepunch":0.4507072569947406,"ironhead":0.9199439390559343,"earthquake":0.5587545591405051,"roost":-0.7175079219628988,"knockoff":0.3842253898914998,"outrage":-0.8690717196776951,"firepunch":-0.06458880369610887,"suckerpunch":-0.6471818389547788,"swordsdance":0.18354722452319316,"iciclecrash":0.1481111466237935,"iceshard":-0.5753049969387782,"pinmissile":-0.046656797976468045,"substitute":0.6583257100533335,"closecombat":0.68865723498633,"stealthrock":-0.9660469437433359,"spikes":0.7916952483121131,"bravebird":0.3484231353238247,"stoneedge":0.6732827844008283,"aquajet":0.5978509750605712,"taunt":0.03229466152391458,"destinybond":0.18235848281976175,"waterfall":-0.6937054006236569,"fakeout":-0.01030159753302895,"highjumpkick":0.5214062992762418,"zenheadbutt":-0.7073454228153642,"poisonjab":-0.7771673020175723,"icebeam":0.3530566731929041,"thunderwave":0.614665105199395,"bulletseed":-0.7495519492793834,"aquatail":0.7986166599514295,"tailslap":-0.9933370219295838,"uturn":-0.914083431519289},"type":{"Poison":-0.25049883347112223,"Normal":0.6873407095330512,"Ice":0.2981230912180698,"Steel":0.7739908204392942,"Ground":-0.22708961077099332,"Flying":0.372948848377425,"Dark":-0.470547907704038,"Dragon":0.3187357548851361,"Fire":-0.7436508962672925,"Bug":0.5058697110883972,"Fighting":0.4714387033633378,"Rock":-0.16333744123035307,"Water":0.9495156418411037,"Ghost":-0.5849952908193323,"Psychic":-0.2579567084525092,"Electric":0.46230133382011296,"Grass":0.5172273110147292},"category":{"status":-0.4621450470813223,"physical":0.2821208418649317,"special":-0.9531040318025488},"damage":-0.9610974299240783,"status":{"tox":-0.6055398631297241,"par":-0.4368979068827499},"volatile":{"Substitute":0.9218089192304206,"taunt":-0.6649144015962114,"destinybond":0.9201245500439605},"sideeffect":{"Wish":0.9419978388418437,"stealthrock":-0.9429691635469859,"spikes":0.5096796509250334},"fieldeffect":{},"accuracy":0.5391794480601652,"target":{"normal":-0.5823654331497454,"self":0.27951944940721674,"allAdjacent":0.7159566743542901,"randomNormal":-0.42205329222498006,"foeSide":0.9892457353205162,"any":-0.7749329132636815}},"switch":{"species":{"Weavile":-0.7105297084187847,"Heracross":0.008903545252256784,"Skarmory":-0.30658198115432134,"Gliscor":-0.2985341927625033,"Druddigon":0.21193089575387256,"Jirachi":-0.6455129656619625,"Qwilfish":0.07664172787817991,"Cinccino":0.6425137532608541,"Haxorus":-0.2617443775808561,"Medicham":0.029996883441026245,"Froslass":0.10808775509207758,"Carracosta":-0.927300180770897},"hp":-0.26557078422683916,"atk":0.08781370291053134,"def":-0.880676962127223,"spa":-0.38644181906545566,"spd":-0.42218953314227275,"spe":-0.9404871176995224,"status":{"tox":-0.4131998631567428,"par":0.43475114504794776},"types":{"Dark":-0.08478634416817918,"Ice":-0.7606155532555632,"Bug":-0.24969321584011617,"Fighting":-0.11785252888595243,"Steel":-0.8511119721719131,"Flying":0.6181593439939604,"Ground":0.34416584231248365,"Dragon":-0.788465166927003,"Psychic":0.9102429585481118,"Water":-0.5370681687957845,"Poison":0.5153964591549114,"Normal":0.013082263960107247,"Ghost":-0.030868362259082183,"Rock":-0.9087468602143786},"ability":{"pickpocket":0.570866129200196,"guts":0.5517045020286644,"sturdy":0.36933080593098216,"poisonheal":-0.779229730569475,"moldbreaker":-0.000614264387166982,"serenegrace":0.9907238984471554,"intimidate":-0.46624547111080084,"skilllink":0.8745615806459374,"purepower":-0.873768661917659,"cursedbody":-0.47928317126446185},"item":{"lifeorb":-0.9140052580173187,"heracronite":0.4385757728766615,"leftovers":-0.12692055992565487,"toxicorb":0.19895205228991492,"airballoon":0.5141372419577965,"":-0.45043617919677115,"blacksludge":0.9993840487994041,"choiceband":-0.5951482075332876,"lumberry":0.6309616681743018,"medichamite":-0.2367143594018839},"moves":{"knockoff":0.338472762949455,"swordsdance":0.8545299386270835,"iciclecrash":0.5627811506906686,"iceshard":0.27570110644338885,"pinmissile":-0.832919689528977,"substitute":-0.4749178708317734,"closecombat":0.6020747146109438,"roost":0.8356337626527585,"stealthrock":-0.6813782027537186,"spikes":0.270636657504415,"bravebird":0.9224809343398195,"earthquake":-0.5198620154108861,"toxic":-0.9302243149797732,"outrage":-0.8984494475757555,"firepunch":-0.797567586736582,"suckerpunch":-0.4378875416292085,"wish":-0.06383769821935115,"icepunch":-0.7142013571893724,"ironhead":0.05245117367071739,"taunt":0.6440117266943055,"destinybond":0.43634732820900046,"waterfall":0.4173004713201296,"bulletseed":-0.01576432871529055,"aquatail":0.6635715588817684,"tailslap":0.3575161212367787,"uturn":0.09125282019493397,"poisonjab":-0.5780690707785876,"fakeout":-0.9355877562531352,"highjumpkick":-0.26887838374325046,"zenheadbutt":-0.6021964255520711,"icebeam":0.4162640777715487,"thunderwave":-0.9002663136198308,"stoneedge":-0.8500603375538146,"aquajet":0.9193619906894722}}}},"bias":-0.06802453677203132},"11":{"weights":{"state":{"weather":{"":-0.8496494958811709},"pseudoweather":{},"myside":{"sideeffects":{"spikes":0.41736639854740387,"stealthrock":0.3906424141037109},"pokemon":{"species":{"Jirachi":-0.11211034354123348,"Gliscor":-0.34520729097612113,"Druddigon":0.9170450270158725,"Weavile":-0.07815117120392594,"Heracross":0.24367743191096636,"Skarmory":-0.8258769677420996,"Carracosta":0.7654073438153737,"Qwilfish":0.3560220904557747,"Medicham":-0.49677697798223086,"Haxorus":0.4396705028161054,"Froslass":-0.7013068735530554,"Cinccino":-0.7287628027911013},"hp":-0.9546248251210067,"atk":0.9845849996399831,"def":0.6151220346773489,"spa":0.5003150410836328,"spd":-0.3688578374734652,"spe":-0.9640770681477281,"status":{"":0.690201138980291,"tox":0.6917059620495701,"par":0.7555132056526851,"frz":0.8203983009023542},"volatiles":{"confusion":-0.8448851462702442,"taunt":0.22779378862026128,"disable":0.11088759553825955},"types":{"Steel":-0.2594281203236111,"Psychic":0.09356060496225829,"Ground":0.15581027182936383,"Flying":-0.20754959405110565,"Dragon":0.8252243504188586,"Dark":-0.21810009254695534,"Ice":0.6529308444157985,"Bug":0.8676652350056052,"Fighting":-0.06810882138241116,"Water":0.7230005748567412,"Rock":-0.1426329969102935,"Poison":0.9797922130387278,"Ghost":-0.7631728657938028,"Normal":-0.9618276670359571},"ability":{"serenegrace":-0.8093608777790784,"poisonheal":-0.09687346680352679,"moldbreaker":-0.11903165880769616,"pickpocket":0.8041516536391059,"guts":-0.7650541304341881,"sturdy":0.8615460914803486,"intimidate":0.7703007330104277,"purepower":0.9481301961690867,"cursedbody":-0.577545223025115,"skilllink":-0.018452612669363613}}},"theirside":{"sideeffects":{"stealthrock":0.187772802133798,"spikes":0.7819396703707662},"pokemon":{"species":{"Carracosta":-0.02544280297238888,"Cinccino":0.7382055797754321,"Medicham":-0.8600180714589782,"Froslass":-0.8474222395490242,"Haxorus":-0.17201093669673975,"Qwilfish":0.5904151275046459,"Jirachi":-0.3274892866865626,"Heracross":-0.6041584597652933,"Druddigon":-0.6863784125428393,"Gliscor":0.9297011810458901,"Skarmory":-0.25295477955061296,"Weavile":0.834607010095456},"hp":0.63174263521373,"atk":0.6694809871150738,"def":0.14959547086184977,"spa":0.11781361763560302,"spd":0.6701803944309547,"spe":-0.4867465723387865,"status":{"":-0.5089341389314704,"tox":-0.3395480362598182,"par":0.3579179015463872},"volatiles":{"confusion":-0.6277309914913185,"substitute":-0.905172886237831},"types":{"Water":-0.36340624365709867,"Rock":0.04613809474862419,"Normal":-0.18939916404485255,"Fighting":-0.1316911932343669,"Psychic":-0.28616695031277345,"Ice":-0.9592164485793455,"Ghost":-0.5818062462933847,"Dragon":0.1450890931142198,"Poison":0.6413419215733034,"Steel":0.5848134568170673,"Bug":0.0987182210519536,"Ground":0.8985450102981921,"Flying":-0.6666810299394884,"Dark":0.45307430012743427},"ability":{"":-0.10093806772059118,"moldbreaker":0.3015775925282508,"intimidate":0.2429421603796815,"serenegrace":0.21531700930855582}}}},"action":{"move":{"id":{"toxic":-0.8682846796339302,"wish":-0.7529072241126036,"icepunch":-0.41623933064049273,"ironhead":0.34859281754507476,"earthquake":0.9214845528169168,"roost":-0.26477269641504586,"knockoff":-0.49478714335706364,"outrage":-0.08076397763611784,"firepunch":0.6386006134835651,"suckerpunch":-0.5172683494074786,"swordsdance":-0.9842327966461389,"iciclecrash":-0.9512928785269327,"iceshard":-0.903068203906273,"pinmissile":-0.09437800850559075,"substitute":0.02725044166133106,"closecombat":0.4254557713569067,"stealthrock":0.9748153765059042,"spikes":-0.8723082582138544,"bravebird":0.09446322285208607,"stoneedge":0.3365011102082961,"aquajet":0.8699570360987634,"taunt":0.16664236309561398,"destinybond":-0.6211770654518585,"waterfall":0.09434060803049871,"fakeout":-0.9749765506130417,"highjumpkick":0.11772658878724185,"zenheadbutt":-0.11352550195825328,"poisonjab":0.2966463872894865,"icebeam":0.21243131371091062,"thunderwave":0.9325480815974263,"bulletseed":0.8492260766601771,"aquatail":-0.31860295176818676,"tailslap":0.7530953786867127,"uturn":0.20477773352796103},"type":{"Poison":-0.8004555811021026,"Normal":0.7768074562251427,"Ice":-0.35558444417245305,"Steel":-0.014795854456051138,"Ground":-0.6265525676112175,"Flying":0.003239229524487395,"Dark":-0.8962955654194995,"Dragon":0.8312479700586866,"Fire":0.3302016026701624,"Bug":-0.17454362918535882,"Fighting":-0.04479894575099186,"Rock":0.5362225090601879,"Water":0.3190146543306773,"Ghost":-0.21172750936579998,"Psychic":0.9063114859832324,"Electric":-0.28991833170801007,"Grass":-0.22880799760088696},"category":{"status":0.7446989877873476,"physical":0.9014319945869256,"special":-0.16541885701555215},"damage":-0.11946995920465414,"status":{"tox":0.8159608414916381,"par":0.9796732857514252},"volatile":{"Substitute":0.6861578878024357,"taunt":0.5776441707171438,"destinybond":-0.3925833319004135},"sideeffect":{"Wish":-0.13042741042543637,"stealthrock":0.9856576642805246,"spikes":-0.041481661430583114},"fieldeffect":{},"accuracy":-0.7822707151620253,"target":{"normal":0.26852524599335,"self":-0.916141853760546,"allAdjacent":0.18002410399549187,"randomNormal":-0.23229280490984236,"foeSide":-0.4162772173598589,"any":-0.4745668476348522}},"switch":{"species":{"Weavile":-0.10446099624917879,"Heracross":-0.8204494925707952,"Skarmory":-0.5884930787874505,"Gliscor":0.7081168254245364,"Druddigon":0.30447608075017873,"Jirachi":0.10082003041597076,"Qwilfish":0.6806173551691033,"Cinccino":-0.6240971824803055,"Haxorus":-0.024338960884750644,"Medicham":0.5208072321531887,"Froslass":-0.19874749936904212,"Carracosta":-0.33437503398821894},"hp":0.6576311745719062,"atk":-0.5418370717454547,"def":0.5624224386482322,"spa":0.7027466065938875,"spd":0.3300820374070323,"spe":0.047716829615087976,"status":{"tox":0.1971319855812082,"par":0.27763903590212813},"types":{"Dark":0.046103742540597376,"Ice":-0.32584599854120777,"Bug":-0.1122329606665815,"Fighting":-0.1649553684686671,"Steel":-0.8382923220312684,"Flying":-0.6091221312236311,"Ground":0.6874252139300695,"Dragon":-0.5690428741584587,"Psychic":-0.8194780480651791,"Water":0.24385904607195702,"Poison":-0.5658727794937368,"Normal":0.8734198756010544,"Ghost":0.058569596137133306,"Rock":-0.14166692938819642},"ability":{"pickpocket":-0.18436561325979603,"guts":-0.15792240500054122,"sturdy":0.9193264306640173,"poisonheal":-0.7550637312232203,"moldbreaker":-0.8930339587877599,"serenegrace":0.019424908240277095,"intimidate":0.26436234039747797,"skilllink":-0.7060377982415585,"purepower":-0.11775919541606017,"cursedbody":-0.1350216093999861},"item":{"lifeorb":-0.44232178989831594,"heracronite":-0.2000457423697206,"leftovers":0.26619675553253863,"toxicorb":0.20115541947738708,"airballoon":-0.4822302440851088,"":0.48166825183308537,"blacksludge":-0.7897071658789279,"choiceband":0.6162293481624656,"lumberry":-0.7191574034718022,"medichamite":-0.24972071190711764},"moves":{"knockoff":0.9643943577857123,"swordsdance":-0.1750390291536862,"iciclecrash":0.23350099704665342,"iceshard":0.5558976312276998,"pinmissile":-0.9632568479170116,"substitute":-0.8189297640245701,"closecombat":0.3229132558328591,"roost":-0.07383656201212302,"stealthrock":0.3181459168177621,"spikes":0.7679650253663541,"bravebird":0.15855643207631154,"earthquake":0.23462045833099282,"toxic":-0.1769564425084859,"outrage":-0.42160031001820863,"firepunch":-0.622983983811567,"suckerpunch":-0.22249716473167427,"wish":-0.10132435500967363,"icepunch":-0.6129715318274647,"ironhead":-0.35168639307107785,"taunt":0.2985715173519563,"destinybond":0.839169831650104,"waterfall":0.5928577060089073,"bulletseed":0.5201822619745745,"aquatail":0.13737231779864378,"tailslap":-0.9980850026680593,"uturn":0.8790669182792484,"poisonjab":-0.028228989634027996,"fakeout":-0.7957880323785038,"highjumpkick":-0.35053650506901324,"zenheadbutt":-0.6747867591757579,"icebeam":0.9266540521165489,"thunderwave":0.6304360660956916,"stoneedge":0.017347143469833855,"aquajet":0.9861663641582076}}}},"bias":-0.06802453677203132},"12":{"weights":{"state":{"weather":{"":0.693495219270474},"pseudoweather":{},"myside":{"sideeffects":{"spikes":0.44734029877973214,"stealthrock":-0.8237779766658323},"pokemon":{"species":{"Jirachi":0.730237671570267,"Gliscor":-0.9992923257729258,"Druddigon":0.5707926588088741,"Weavile":-0.3410972750340446,"Heracross":-0.23058468606226346,"Skarmory":0.0871879785628096,"Carracosta":-0.9158677778380468,"Qwilfish":-0.7782035097582827,"Medicham":0.2712646053414627,"Haxorus":0.5514202299642335,"Froslass":0.4793649476491444,"Cinccino":0.6627426461913006},"hp":-0.96100276191609,"atk":0.6787900891522161,"def":-0.9871615226076691,"spa":0.7516757762792035,"spd":-0.8754250911156822,"spe":-0.9477524029592096,"status":{"":-0.37915820621322344,"tox":-0.22516979778588866,"par":-0.07095581228583926,"frz":-0.5746837807885549},"volatiles":{"confusion":0.9405544130847472,"taunt":0.5788209740590489,"disable":0.33164333523012646},"types":{"Steel":0.9136094484653987,"Psychic":0.686988693230534,"Ground":0.524475380049146,"Flying":-0.06592780937177639,"Dragon":0.9621432837405035,"Dark":-0.47237135458690344,"Ice":-0.7260896103267639,"Bug":0.09024086909533523,"Fighting":-0.5538249339317135,"Water":-0.46724667248701346,"Rock":-0.22451874209393338,"Poison":0.49221577681132356,"Ghost":0.3881470257510853,"Normal":0.3140865335026208},"ability":{"serenegrace":-0.19343540075375718,"poisonheal":-0.7482337059233941,"moldbreaker":0.5660245792581986,"pickpocket":-0.33688194950904443,"guts":-0.9484988986069928,"sturdy":-0.2370934789488054,"intimidate":-0.9710938618528515,"purepower":-0.864899325057555,"cursedbody":-0.7326928863923783,"skilllink":-0.38754314898544623}}},"theirside":{"sideeffects":{"stealthrock":0.04545420951840348,"spikes":0.6507615965391469},"pokemon":{"species":{"Carracosta":-0.522274062574862,"Cinccino":0.746097464979165,"Medicham":0.4502390830475027,"Froslass":0.8737944951934574,"Haxorus":0.02836812615075621,"Qwilfish":-0.18131302258583373,"Jirachi":-0.1515497293831328,"Heracross":0.8872309631872267,"Druddigon":-0.60409263451973,"Gliscor":-0.9537275407225717,"Skarmory":-0.6460564540186968,"Weavile":-0.05817656911354134},"hp":0.8305391018116816,"atk":0.9667792582251993,"def":-0.4066941658346189,"spa":0.13447596718857743,"spd":-0.6253038795556499,"spe":0.8430752175873202,"status":{"":-0.413067402476113,"tox":-0.29551455093282253,"par":0.039361585492766506},"volatiles":{"confusion":-0.766053964728898,"substitute":0.4626217514302029},"types":{"Water":-0.4597364078298834,"Rock":-0.6008899462515073,"Normal":0.24151537321736752,"Fighting":0.36137864735156533,"Psychic":0.7508003333649813,"Ice":-0.5240343368504636,"Ghost":0.8751449286627063,"Dragon":0.6333297850489282,"Poison":-0.2646195855144459,"Steel":0.8809353377540421,"Bug":-0.14099560272092704,"Ground":-0.9609425282996574,"Flying":0.4478944923251172,"Dark":-0.3275358974842619},"ability":{"":0.7032266241047819,"moldbreaker":-0.26838358034344634,"intimidate":0.7324551338844933,"serenegrace":0.2239489915557024}}}},"action":{"move":{"id":{"toxic":0.6459622612544286,"wish":-0.1962521542303861,"icepunch":0.7151516867384164,"ironhead":-0.34053170431322144,"earthquake":0.6819691942444251,"roost":-0.3391783685803582,"knockoff":-0.09997358581344118,"outrage":-0.9438329055254524,"firepunch":-0.39544742353971696,"suckerpunch":-0.2597834600504818,"swordsdance":-0.7387987752157629,"iciclecrash":0.8663203738713386,"iceshard":0.7706692391425154,"pinmissile":0.45627571332613437,"substitute":-0.1632880959612768,"closecombat":-0.1432399355288032,"stealthrock":-0.14531876780743375,"spikes":-0.4268730097609142,"bravebird":-0.4419973420164765,"stoneedge":-0.809748838489824,"aquajet":0.7518832150237946,"taunt":-0.7958150770024099,"destinybond":-0.8040492040062674,"waterfall":-0.8860851865758028,"fakeout":0.312149403557211,"highjumpkick":-0.12393328276006876,"zenheadbutt":0.6077692036565692,"poisonjab":0.32947195767768084,"icebeam":-0.7155802919585379,"thunderwave":0.6133231378400392,